<?xml version="1.0"?>
<opencv_storage>
<opencv_ml_svm>
  <format>3</format>
  <svmType>C_SVC</svmType>
  <kernel>
    <type>RBF</type>
    <gamma>2.0000000000000000e-03</gamma></kernel>
  <C>512.</C>
  <term_criteria><epsilon>9.9999999999999995e-07</epsilon></term_criteria>
  <var_count>512</var_count>
  <class_count>104</class_count>
  <class_labels type_id="opencv-matrix">
    <rows>104</rows>
    <cols>1</cols>
    <dt>i</dt>
    <data>
      0 1 2 3 4 5 6 7 8 9 10 11 12 13 14 15 16 17 18 19 20 21 22 23 24
      25 26 27 28 29 30 31 32 33 34 35 36 37 38 39 40 41 42 43 44 45 46
      47 48 49 50 51 52 53 54 55 56 57 58 59 60 61 62 63 64 65 66 67 68
      69 70 71 72 73 74 75 76 77 78 79 80 81 82 83 84 85 86 87 88 89 90
      91 92 93 94 95 96 97 98 99 100 101 102 103</data></class_labels>
  <sv_total>104</sv_total>
  <support_vectors>
    <_>
      1.74815468e-02 7.42814913e-02 -9.00693163e-02 3.84870581e-02
      2.98534948e-02 -7.33317509e-02 7.11317500e-03 9.62047279e-02
      1.60801914e-02 4.89781052e-02 -1.91657059e-02 -3.91292162e-02
      -8.51410851e-02 -1.41078373e-02 -9.89488885e-03 1.48131931e-02
      8.39292109e-02 3.38442661e-02 4.61561466e-03 -6.23540021e-03
      5.71303591e-02 8.57481360e-03 -2.18017194e-02 -2.65014134e-02
      2.47888174e-03 -7.07540661e-02 5.18840142e-02 4.90559787e-02
      1.25661865e-01 2.29065679e-02 -2.80905850e-02 -2.61123944e-02
      -2.65085953e-03 7.45181285e-04 5.21572381e-02 -7.41569027e-02
      -3.48219015e-02 -5.55687658e-02 -1.57096293e-02 -1.36720901e-02
      -5.37736639e-02 1.76275261e-02 -1.23353489e-02 5.71750216e-02
      -3.71817276e-02 -4.35304865e-02 -4.43669222e-03 2.25017015e-02
      -8.77918676e-03 8.77574980e-02 -1.89947430e-02 -4.33414131e-02
      1.01417027e-01 -4.85321246e-02 4.38921787e-02 3.56745645e-02
      -6.48838431e-02 4.17567566e-02 4.35232595e-02 -4.30133054e-03
      1.95525456e-02 3.57375033e-02 -1.60145387e-02 2.21564583e-02
      -2.49345205e-03 -4.87997755e-02 8.11039656e-03 7.86214173e-02
      4.44878414e-02 -6.62473962e-02 -9.77239832e-02 -4.05420689e-03
      -6.19636551e-02 8.98046233e-03 6.74062520e-02 -1.07963122e-02
      1.34307528e-02 -8.71003512e-03 3.72923166e-02 2.50972509e-02
      4.55456460e-03 -4.88550179e-02 -2.83789970e-02 4.72658314e-02
      -2.79092807e-02 -1.21141300e-02 -2.91180182e-02 3.38096842e-02
      2.03198809e-02 -1.67188030e-02 -9.35850851e-03 -2.80267503e-02
      2.25842148e-02 -1.22158369e-02 -4.85165603e-02 6.32697344e-02
      2.60806526e-03 1.19049419e-02 -1.77538563e-02 2.95588537e-03
      1.25379991e-02 -1.53437839e-03 -5.86490985e-03 -1.29032740e-02
      -1.00474535e-02 2.20970102e-02 -2.32091807e-02 -5.88596202e-02
      7.09628984e-02 1.42296003e-02 5.35744615e-02 -2.44943146e-03
      3.21653225e-02 -5.91280647e-02 -2.54931878e-02 6.60983426e-03
      3.91903035e-02 1.68847088e-02 -3.50347534e-02 5.79841509e-02
      4.27193381e-02 4.00392525e-02 9.64871701e-03 2.41490286e-02
      -5.96713312e-02 1.23658814e-02 9.33001637e-02 -9.66591537e-02
      3.15427285e-04 9.38222185e-02 -6.49900585e-02 3.99439521e-02
      7.42088407e-02 -9.53916684e-02 4.37981896e-02 -2.93566491e-02
      1.33724613e-02 -1.55552374e-02 8.14209580e-02 3.62833925e-02
      -2.43473593e-02 1.27830841e-02 -6.59427792e-03 -4.21523340e-02
      2.04771925e-02 6.62351623e-02 -1.57338660e-02 -5.60928509e-03
      -4.52053174e-03 -2.72950027e-02 2.30621677e-02 4.11191303e-03
      8.91623460e-03 -2.39404812e-02 -1.87010523e-02 -4.78618406e-02
      -9.88189578e-02 1.42792938e-02 -2.87696719e-02 -3.98251228e-02
      7.61318058e-02 -1.97525602e-02 3.56331281e-02 3.78994159e-02
      2.09435001e-02 4.56336923e-02 1.40883902e-03 4.63445708e-02
      -5.77948093e-02 4.16441038e-02 2.36776937e-02 -3.39519307e-02
      4.15673070e-02 8.49552918e-03 -2.71136668e-02 2.15746686e-02
      -3.39522660e-02 7.40477443e-02 -5.13954496e-04 -5.37631474e-02
      1.73446313e-02 -4.15460542e-02 -2.36157887e-03 -2.00315583e-02
      3.85177024e-02 2.01896019e-02 -1.03397379e-02 -5.71484305e-02
      -3.17058712e-02 5.58695793e-02 -2.60016299e-03 3.68371122e-02
      2.63971947e-02 -1.68473367e-02 4.87299375e-02 2.96471063e-02
      -7.91582093e-02 2.22381018e-02 -5.94728254e-03 -1.37395533e-02
      1.60148379e-03 7.39200506e-03 8.03457275e-02 -1.20414570e-01
      2.05872916e-02 -6.01355433e-02 4.03474383e-02 -9.34367999e-03
      -2.25557685e-02 5.02880327e-02 -3.72064766e-03 2.79434752e-02
      2.85250717e-04 -2.26019253e-03 -6.44714981e-02 9.65431035e-02
      -9.48082190e-03 -8.44369549e-03 -1.03014782e-01 8.27429257e-03
      2.04928610e-02 3.74365635e-02 8.85082129e-03 7.72092938e-02
      -1.30001139e-02 1.80075818e-03 1.28464717e-02 -4.52384874e-02
      8.53965618e-03 -7.61916628e-03 -2.61437632e-02 -1.15532018e-01
      1.14688864e-02 -1.06911108e-01 -4.53475751e-02 5.27144223e-02
      1.57051161e-02 3.67064252e-02 1.75880955e-03 2.79700663e-02
      -3.00234719e-03 -5.63159734e-02 -2.38392930e-02 -4.78087366e-02
      2.64014676e-02 9.16839540e-02 -2.38410849e-02 -2.88674068e-02
      4.83089499e-02 -3.93830203e-02 -5.91970272e-02 5.53834103e-02
      9.40386951e-03 1.55577632e-02 -9.42771658e-02 -4.42239307e-02
      -6.29440881e-03 6.36394173e-02 8.02577361e-02 -6.92243427e-02
      -1.51477940e-02 -1.97283588e-02 3.65891531e-02 -1.20775271e-02
      5.32612652e-02 -6.52749017e-02 -4.11691181e-02 3.77822928e-02
      -1.67187583e-02 -5.38306534e-02 4.68130335e-02 4.00509080e-03
      6.56844582e-03 4.48323824e-02 -3.50380614e-02 3.91613804e-02
      -4.64044288e-02 3.43613550e-02 -5.47464490e-02 2.66837198e-02
      4.39967075e-03 -3.93003691e-03 -9.03473794e-03 -6.66985894e-03
      3.13747525e-02 1.29939457e-02 2.41690073e-02 4.41715680e-02
      -3.20637599e-02 1.68062299e-02 -5.78512326e-02 -5.24810329e-02
      -5.31506315e-02 2.35815793e-02 -7.06663728e-02 2.45054048e-02
      -1.65832415e-02 -4.47644107e-02 4.08328325e-02 -8.12435243e-03
      2.69079972e-02 3.01095452e-02 -2.02329201e-03 1.98728368e-02
      2.20390372e-02 8.56296334e-04 1.25281915e-01 -3.17253210e-02
      -4.88865823e-02 -1.34148356e-02 -4.88973297e-02 4.36202586e-02
      -8.18249676e-03 -2.58426502e-04 7.91012794e-02 -9.10650101e-03
      2.86542461e-03 4.20272304e-03 5.65330386e-02 -1.11675702e-01
      -3.73993143e-02 -6.51930869e-02 2.19740570e-02 3.82860899e-02
      -5.73120918e-03 -2.55031884e-02 -6.45512063e-03 2.14670319e-02
      -2.92208847e-02 3.45122814e-02 2.16153334e-04 7.23240077e-02
      -1.13319941e-01 3.61318439e-02 -5.99150024e-02 3.60959060e-02
      -3.08200344e-02 -4.71585654e-02 -2.74341218e-02 4.87437891e-03
      1.05912834e-01 5.00952043e-02 -3.11120450e-02 4.71791178e-02
      1.22290589e-02 -3.73176336e-02 -4.94689718e-02 4.98978607e-02
      2.35537626e-03 2.20241677e-02 2.66177580e-02 -3.30659188e-02
      2.49026120e-02 4.82608750e-03 -2.53542028e-02 5.48289577e-03
      2.68567130e-02 6.41100556e-02 -8.06226302e-03 -4.30867150e-02
      -7.76260793e-02 -8.45868327e-03 -7.78220594e-02 1.40396431e-02
      -9.88235325e-03 9.05765742e-02 -1.34715037e-02 -3.19208615e-02
      1.94466952e-02 1.43057313e-02 -5.78962751e-02 1.76387820e-02
      -3.61200469e-03 2.00660415e-02 -3.08621712e-02 2.64085233e-02
      -7.74606839e-02 1.07696336e-02 -4.36139442e-02 -2.41900701e-02
      2.97747832e-03 5.87434806e-02 1.90580301e-02 4.66427915e-02
      5.98254800e-02 2.63362397e-02 4.75140028e-02 7.25867301e-02
      -4.42051068e-02 -3.41917388e-02 -1.25360312e-02 8.23779032e-03
      -7.00222403e-02 -1.60679892e-02 -1.09901503e-02 -4.56230044e-02
      -4.30471357e-03 4.20605280e-02 1.06634334e-01 -6.38356283e-02
      3.13852578e-02 7.68198399e-03 4.82166931e-02 1.17221139e-02
      -1.96582787e-02 -1.02090091e-03 -3.85524482e-02 -3.30056548e-02
      6.17161505e-02 3.59863183e-03 4.26338911e-02 5.23894839e-02
      -9.21036676e-02 -7.07381545e-03 -4.71667722e-02 -3.18691432e-02
      6.08000420e-02 3.50943133e-02 1.30576016e-02 -2.92442227e-03
      6.85296655e-02 6.24664463e-02 8.31591040e-02 4.17950265e-02
      3.77414450e-02 7.38983741e-04 1.71232678e-03 4.17803265e-02
      -4.53950725e-02 -2.91142939e-03 -7.87496045e-02 -6.36201203e-02
      -2.50611827e-02 -6.59653321e-02 -1.82299465e-02 -2.38189697e-02
      -4.27779555e-03 -3.74751091e-02 1.21227968e-02 1.99575666e-02
      -2.43278965e-02 -4.31036763e-02 -3.64604071e-02 -2.82735638e-02
      -3.53539130e-03 4.89123464e-02 5.59788523e-03 6.88472092e-02
      -3.03977355e-02 -4.49929833e-02 1.18012458e-01 -5.50569873e-03
      7.28301378e-03 2.21443698e-02 -1.69096570e-02 -9.95543152e-02
      -2.66526900e-02 2.68046223e-02 6.83010221e-02 5.65429702e-02
      8.99743885e-02 8.67010280e-02 -1.21356472e-02 4.10220698e-02
      2.79717389e-02 3.04725561e-02 7.37421662e-02 -1.07164823e-01
      1.41435778e-02 -2.48738509e-02 -2.17228420e-02 -9.44767520e-03
      6.10968918e-02 -5.08971848e-02 -7.35925883e-03 6.17255680e-02
      -1.38595654e-02 7.04988884e-03 6.28339797e-02 -2.54354198e-02
      2.28213742e-02 3.78541276e-02 -3.16954367e-02 4.19311412e-02
      -2.53757741e-02 -5.89976460e-02 -7.04656765e-02 3.32728401e-02
      -1.24876378e-02 -4.20829058e-02 4.73585539e-02 -6.06962293e-02
      -3.75198871e-02 -4.99123475e-03 4.04304005e-02 -5.49464766e-03
      8.07051063e-02 8.87916423e-03 -5.08983992e-02 -4.63515371e-02
      -3.30036618e-02 3.09353638e-02 2.91499514e-02 2.27655470e-03
      -2.90938001e-02 -1.45948930e-02 -3.01971789e-02 4.44096588e-02
      3.99252027e-03 -4.23287712e-02 -3.09555419e-03 -5.00007048e-02</_>
    <_>
      -2.65950477e-03 8.31217244e-02 -2.40932349e-02 6.76639378e-02
      1.79567318e-02 -3.51864323e-02 -5.10511883e-02 1.37393065e-02
      -2.53177229e-02 1.93729140e-02 7.98370689e-02 -9.84627404e-04
      -4.97555770e-02 -5.66962222e-03 1.16278473e-02 8.08923133e-03
      6.39351457e-02 8.38103443e-02 -2.87281293e-02 -1.87623929e-02
      2.28865482e-02 5.11743426e-02 5.96325696e-02 -9.29135457e-03
      -3.75249423e-02 -4.89386134e-02 5.31046465e-02 -3.56136113e-02
      4.21145931e-02 7.42419139e-02 -1.65246651e-02 -1.77589078e-02
      8.37151427e-03 5.39836362e-02 4.32293341e-02 -5.55259176e-03
      -7.14830239e-04 -9.55694765e-02 7.94351846e-03 5.27506098e-02
      -2.82721184e-02 -4.55258265e-02 3.16236652e-02 3.61904353e-02
      -1.34623395e-02 4.83672135e-02 -5.51798828e-02 3.21276262e-02
      -3.83904204e-02 9.00921971e-02 1.04832733e-02 -3.58344382e-03
      3.79867479e-02 1.28715737e-02 5.09782881e-03 -7.40491524e-02
      -2.63455859e-03 1.25840427e-02 3.08251306e-02 7.67932693e-03
      5.65701462e-02 5.57812341e-02 2.49974262e-02 -1.03083542e-02
      3.45603339e-02 -1.30327111e-02 -4.39593084e-02 6.53444836e-03
      5.46139516e-02 3.91772762e-02 4.43192152e-03 7.32038319e-02
      -3.56375016e-02 1.27489790e-02 7.03621209e-02 -1.20503660e-02
      -7.07151219e-02 -3.80747020e-02 -4.12841281e-03 4.26848307e-02
      5.02334759e-02 -4.46801744e-02 -4.13124450e-02 -1.85010005e-02
      2.61505164e-04 -1.37354592e-02 2.40003429e-02 7.00510591e-02
      2.77670771e-02 -3.99613529e-02 1.00334836e-02 -3.36980112e-02
      -1.65734962e-02 -4.67570126e-02 6.00538729e-03 2.89991219e-03
      7.34042423e-03 6.56421855e-02 -4.57412936e-02 4.00798023e-02
      5.28518222e-02 1.03638796e-02 -2.31296197e-02 2.92694978e-02
      -3.07621211e-02 1.83936656e-02 3.20188999e-02 -5.66322803e-02
      1.94023084e-03 -1.68260392e-02 4.39855270e-02 -4.72795358e-03
      -1.34767545e-02 -7.89736360e-02 1.39462602e-04 -4.10063677e-02
      -1.05758039e-02 -4.31031920e-03 -4.75652330e-02 4.81249243e-02
      9.50244907e-03 7.95056075e-02 -7.45294988e-02 -7.25917192e-03
      -4.07212675e-02 -3.13557982e-02 -1.02282753e-02 -1.23056583e-03
      3.12561840e-02 3.60039845e-02 -2.24324223e-02 -6.14139289e-02
      4.90834489e-02 -3.77297215e-02 -1.41856326e-02 2.14850297e-03
      -5.94801679e-02 -1.26483794e-02 7.95935094e-03 1.00606248e-01
      3.30770575e-02 9.30801407e-02 -6.41432917e-03 1.35926846e-02
      2.25140266e-02 4.12628651e-02 3.58098070e-04 2.84925438e-02
      7.94655550e-03 1.03187338e-02 2.34325603e-02 1.96313881e-03
      -5.36005944e-02 3.26674096e-02 2.52622943e-02 -7.24545568e-02
      -1.13264151e-01 8.87329038e-03 -2.95853633e-02 -8.13449919e-02
      4.83210795e-02 1.49344876e-02 -2.14621648e-02 1.58092082e-01
      3.75158116e-02 3.53334583e-02 -4.18203883e-02 2.92593278e-02
      -6.32240698e-02 -1.76475476e-02 -1.31845176e-02 -3.31727974e-02
      1.00025488e-02 4.61269096e-02 -2.21238937e-02 2.69830227e-02
      -1.58052668e-02 9.52957850e-03 -3.57571319e-02 -1.49306078e-02
      -4.17662486e-02 -1.09246545e-01 2.51432266e-02 3.63969477e-03
      2.89683919e-02 8.24174285e-03 5.51353246e-02 4.47939942e-03
      -3.84174772e-02 2.44342983e-02 1.13269864e-02 3.00226640e-02
      1.25170723e-01 -2.78681777e-02 9.97935422e-03 -9.07916278e-02
      -5.02310544e-02 -4.54634167e-02 2.36898623e-02 2.36377101e-02
      2.08806731e-02 -7.04028597e-03 3.98301855e-02 -3.95926535e-02
      6.42879307e-02 -2.25551357e-03 2.88075786e-02 -5.57794794e-02
      -5.94380610e-02 3.84166911e-02 -2.07487699e-02 2.11393666e-02
      -3.94418230e-03 1.61715169e-02 -4.81492952e-02 3.83821465e-02
      6.06608652e-02 -1.54302260e-02 8.61703511e-03 3.24561261e-02
      -3.73834521e-02 -3.93946320e-02 4.48267348e-03 6.66121393e-03
      9.79596302e-02 -5.20784757e-04 -5.69305324e-04 -2.29499992e-02
      -2.55358387e-02 2.69617066e-02 4.99744676e-02 1.98821202e-02
      1.80940051e-02 -4.10847589e-02 3.36122210e-03 -2.79382756e-03
      2.70305271e-03 7.22450763e-02 -5.35407150e-03 2.71581821e-02
      1.37284992e-03 -2.43357122e-02 4.37980220e-02 2.57063564e-02
      7.17846900e-02 1.01280801e-01 -1.07657537e-02 3.43630202e-02
      9.15804952e-02 -4.01434116e-02 -4.55215313e-02 1.03988079e-03
      -7.22672883e-03 -8.09405651e-03 -2.04298962e-02 -7.04315603e-02
      1.73483007e-02 4.76421528e-02 6.62618876e-02 3.26358825e-02
      -8.13713111e-03 -7.13324398e-02 3.63795273e-02 -6.54976293e-02
      -3.13349552e-02 -6.41376302e-02 -1.45829935e-02 1.61930304e-02
      -4.77192476e-02 -8.60053375e-02 1.08287662e-01 1.05943037e-02
      5.09767383e-02 5.16602397e-02 1.29405863e-03 3.81629691e-02
      -1.84684736e-03 3.75130512e-02 -2.74873083e-03 -1.29951648e-02
      4.71693464e-02 -3.97661813e-02 -1.10607520e-02 -4.80747335e-02
      -2.49717813e-02 -5.25567196e-02 1.98392961e-02 -2.48282403e-02
      -5.99018373e-02 2.07745582e-02 -6.83698133e-02 -5.02164438e-02
      -5.99256624e-03 -2.00893562e-02 -4.66814600e-02 -4.55284566e-02
      -7.81618878e-02 -1.73868947e-02 2.33050920e-02 6.24231668e-03
      1.12847276e-01 -7.14410795e-03 -7.76929967e-03 2.66484749e-02
      6.86586946e-02 -4.02734093e-02 8.89514610e-02 -8.20177887e-03
      -5.22744656e-02 3.71519625e-02 6.29582955e-03 2.57266499e-02
      4.95457873e-02 1.62005443e-02 1.19795814e-01 1.94767141e-03
      -2.84872204e-02 -3.36597711e-02 2.93918587e-02 -5.13350815e-02
      1.78458225e-02 -5.48864603e-02 -2.61825062e-02 4.26078141e-02
      -2.55932789e-02 1.99565869e-02 4.92688492e-02 6.19444288e-02
      6.73522502e-02 8.58293772e-02 5.92936948e-02 -9.72393062e-03
      -1.32251769e-01 6.06332794e-02 -2.43147779e-02 7.21893683e-02
      -5.23915030e-02 -2.70915870e-02 -3.48698022e-03 -7.11433473e-04
      5.23944162e-02 -1.88593548e-02 1.87560227e-02 4.48942930e-02
      4.50993180e-02 2.77206190e-02 -7.02474862e-02 2.62913294e-02
      3.42346318e-02 4.34460677e-03 -2.58820057e-02 -7.43051544e-02
      2.64607952e-03 5.34069613e-02 -1.46637661e-02 7.54135326e-02
      2.46136170e-02 6.27695471e-02 -2.64546406e-02 -3.92325558e-02
      -5.38997836e-02 -1.93181839e-02 -1.08652063e-01 -9.03984159e-03
      1.06315976e-02 8.94559082e-03 -2.15084553e-02 4.84380871e-02
      -8.65142792e-02 1.76257081e-02 -3.81499119e-02 -3.91857559e-03
      -1.32168997e-02 2.46026809e-03 1.86003000e-02 7.28147477e-02
      -1.50954230e-02 -1.68193635e-02 -7.82391056e-02 1.43057564e-02
      2.39856280e-02 1.32172527e-02 -2.67217923e-02 -6.92200055e-03
      6.02605641e-02 1.04545401e-02 -1.60799753e-02 2.54320279e-02
      -2.67182905e-02 5.80884181e-02 6.76975818e-03 5.52677698e-02
      -7.19475746e-02 -1.89645833e-03 -3.45898569e-02 -6.83889240e-02
      3.48391081e-03 5.89426495e-02 -2.31489399e-03 1.55501254e-03
      3.15795690e-02 7.76942912e-03 9.17201191e-02 3.36487405e-02
      -6.93411939e-03 -4.41121310e-02 -1.34529574e-02 -4.75252494e-02
      -6.45698514e-03 1.17194643e-02 1.15153678e-02 -2.54148263e-02
      -3.12194787e-02 9.62342545e-02 -4.58491445e-02 -8.16152021e-02
      2.54790764e-02 6.24939315e-02 2.57282257e-02 -2.29668040e-02
      2.48962119e-02 -2.79739033e-03 1.05254687e-02 -1.30471019e-02
      1.78490900e-05 7.13252798e-02 7.04103038e-02 2.18556114e-02
      3.35726328e-03 -2.03038640e-02 -4.51216325e-02 3.56683768e-02
      -3.22692953e-02 -7.53559396e-02 -1.24666064e-06 -1.23004895e-02
      -3.83800082e-02 -5.83064333e-02 -2.89027132e-02 3.07749175e-02
      -5.54460809e-02 -1.12831080e-02 -3.31017673e-02 6.53062239e-02
      -3.84412669e-02 2.42558457e-02 -3.74082252e-02 2.31007971e-02
      -1.79156810e-02 -5.87891191e-02 4.73951213e-02 1.12880149e-03
      2.02520974e-02 2.17184257e-02 -5.18515222e-02 -7.82236271e-03
      -4.92565818e-02 8.82730931e-02 4.26387377e-02 1.09759673e-01
      -8.63466237e-04 3.15126553e-02 2.72644889e-02 4.40812968e-02
      4.83822124e-03 1.26761068e-02 4.57170717e-02 -6.14528731e-02
      4.44302112e-02 -5.48942387e-03 4.86332588e-02 8.68670829e-03
      9.39282477e-02 -9.71854106e-02 -7.75585398e-02 4.39326093e-02
      -7.70484796e-03 -2.88889799e-02 4.71383259e-02 -5.32930717e-03
      2.52464451e-02 3.47743034e-02 3.43159214e-02 4.47079390e-02
      -3.10964230e-02 -5.12402924e-03 -5.44371195e-02 7.36476108e-02
      1.93365775e-02 -9.47272703e-02 1.02366023e-02 -4.84969839e-02
      -4.28231731e-02 -3.24102715e-02 7.75264576e-02 -8.13219603e-03
      5.65375797e-02 7.82243013e-02 5.11443950e-02 -1.76996104e-02
      -2.28850041e-02 4.60369103e-02 5.92853278e-02 9.17761307e-03
      -4.63449731e-02 7.65793920e-02 1.73743460e-02 2.44061593e-02
      -4.48328815e-02 -4.29390110e-02 4.75732647e-02 -4.43771519e-02</_>
    <_>
      7.74280131e-02 3.82677978e-03 -6.89224526e-03 9.70479995e-02
      5.08254319e-02 2.14073970e-03 -6.02852255e-02 -7.38559477e-03
      -3.96460518e-02 1.91376787e-02 3.63597423e-02 2.86713261e-02
      -2.27889754e-02 5.76060750e-02 1.53960399e-02 -1.90782752e-02
      4.47503440e-02 8.29487890e-02 4.24148738e-02 1.65556967e-02
      2.16645952e-02 5.03842980e-02 1.79013703e-02 1.69461500e-03
      2.37754849e-03 -5.01074903e-02 5.96751161e-02 2.38132644e-02
      6.56823963e-02 -4.14028717e-03 -8.61728936e-03 -4.18376364e-02
      4.83824164e-02 4.22052965e-02 5.78725990e-03 -1.02615215e-01
      -7.78271481e-02 -2.32107434e-02 6.80443365e-04 2.13857461e-02
      -6.78138211e-02 -5.58968680e-03 -1.25851193e-02 2.36639977e-02
      3.39574134e-03 8.83100852e-02 -4.76109271e-05 1.20018714e-03
      -1.98109150e-02 8.27279985e-02 1.51101807e-02 -1.07542248e-02
      3.93379815e-02 7.16676656e-03 2.56618261e-02 -3.78397629e-02
      3.22188996e-02 2.17001121e-02 1.88214649e-02 -2.71965861e-02
      2.35494226e-02 2.04481930e-02 2.38114055e-02 -2.83489544e-02
      3.73854935e-02 1.66421179e-02 4.39804746e-03 -4.57895249e-02
      2.79938951e-02 3.98427527e-03 4.82735835e-04 8.12875330e-02
      -5.48527576e-02 7.63030797e-02 4.79532927e-02 2.47478709e-02
      1.06123136e-02 -3.35956663e-02 -3.96799017e-03 5.03998771e-02
      5.72332516e-02 1.97782796e-02 -1.37787256e-02 2.81526969e-04
      6.11727592e-03 2.77366303e-02 6.24940917e-02 2.02281140e-02
      -5.26120886e-02 -1.23065878e-02 -1.49109634e-02 -6.56161904e-02
      3.70106772e-02 -9.75073781e-03 -1.16179753e-02 1.94955263e-02
      2.09083967e-03 8.06136727e-02 -1.24078309e-02 2.30607335e-02
      2.05968525e-02 2.73677725e-02 2.91145723e-02 -8.70853569e-03
      -1.00643123e-02 -1.34325176e-02 -1.67050362e-02 -2.16350183e-02
      -2.66208518e-02 -1.17417956e-02 2.66172346e-02 -5.05010113e-02
      -6.37553632e-02 -8.00080821e-02 7.04361917e-03 -4.89074737e-04
      6.25640452e-02 1.90630686e-02 -6.01590751e-03 6.57143965e-02
      -8.68725218e-03 1.01526864e-01 -4.07129265e-02 -1.66409332e-02
      -4.33952734e-02 -8.17036163e-03 5.96490577e-02 -9.54177231e-02
      2.84508355e-02 5.56555158e-03 1.47161353e-02 -1.19128842e-02
      1.18042119e-02 1.00575271e-03 -7.32813478e-02 -6.25282824e-02
      -4.22246158e-02 1.81544796e-02 4.28508259e-02 3.76731940e-02
      5.12291044e-02 1.09107882e-01 1.41306808e-02 -3.60442922e-02
      8.89847279e-02 4.37606983e-02 -1.94693692e-02 -3.05599021e-03
      -1.07111074e-02 -5.05232364e-02 2.51861513e-02 8.84690695e-03
      -7.46474117e-02 7.77996033e-02 -3.96444388e-02 -1.06844172e-01
      -8.52332264e-02 1.67343568e-03 -3.27716693e-02 -6.23041131e-02
      -1.97981000e-02 4.21266928e-02 1.06682032e-02 1.03288569e-01
      9.82590113e-03 5.82713746e-02 -3.15610990e-02 1.40998429e-02
      -7.59674981e-02 5.06224670e-02 -2.40269769e-02 2.66533233e-02
      4.36473824e-02 -5.24122305e-02 2.55617816e-02 1.30168581e-02
      -2.29172520e-02 3.83902974e-02 -1.72584504e-02 5.26334122e-02
      5.25488518e-02 -8.78441110e-02 -1.94854327e-02 4.19931822e-02
      9.14973319e-02 -5.97551465e-03 3.24315839e-02 -2.26690080e-02
      1.21541135e-02 4.40091677e-02 -5.00370050e-04 4.54465598e-02
      9.09273997e-02 9.58484691e-03 -3.42264306e-03 -2.75726430e-03
      -6.76052943e-02 -4.02845107e-02 -5.56294434e-03 3.59397158e-02
      9.77087319e-02 2.18672305e-02 1.92270931e-02 -2.00457163e-02
      2.23402716e-02 -9.03350860e-03 -3.84684354e-02 -4.51271702e-03
      -1.63944531e-02 6.76264614e-02 -2.27995939e-03 -3.07072699e-02
      -5.29084131e-02 2.46584788e-02 -4.81189676e-02 7.03568757e-02
      1.75604746e-02 -2.74401568e-02 -4.00298126e-02 3.06595042e-02
      -5.60357012e-02 -2.28859801e-02 -5.17079001e-03 2.75746156e-02
      1.10884034e-03 2.42797006e-02 2.78268903e-02 1.17998049e-02
      2.05429010e-02 -5.39495656e-03 3.69148031e-02 -5.31842522e-02
      6.40820935e-02 -9.67777893e-02 -3.66701409e-02 6.79917773e-03
      -1.31280599e-02 5.84433824e-02 8.04371238e-02 6.78523257e-02
      2.28793081e-02 -1.09444167e-02 7.82467984e-03 -1.22052114e-02
      1.12319887e-02 6.23038262e-02 -5.19216023e-02 -3.00660613e-03
      2.38656960e-02 2.64301859e-02 -1.67486537e-02 4.02118377e-02
      3.12274648e-03 2.89261509e-02 1.88398752e-02 3.54854725e-02
      -7.01319752e-03 8.37256014e-02 4.05311957e-02 2.06242427e-02
      -9.20333266e-02 -1.94553044e-02 2.81231012e-02 -5.51107526e-02
      -5.45768104e-02 -4.00391147e-02 5.24641424e-02 2.34246980e-02
      2.61390433e-02 -2.41422113e-02 5.61044663e-02 5.03763519e-02
      4.81378511e-02 1.55595895e-02 9.40192956e-03 3.52547467e-02
      -1.06946342e-02 1.40846651e-02 8.99932440e-03 1.23263877e-02
      5.22409528e-02 -4.22626436e-02 -9.13291350e-02 -5.85499778e-02
      6.39270693e-02 -1.13012120e-02 -2.56528240e-03 -2.26525497e-02
      -7.21286982e-02 1.60111636e-02 -3.94044109e-02 -6.70297891e-02
      4.33187149e-02 -1.03836050e-02 -1.49843451e-02 -5.57266101e-02
      -1.19971797e-01 2.27359012e-02 6.82555884e-02 -7.23749399e-02
      1.02620125e-01 -3.14920656e-02 4.22772840e-02 4.85659502e-02
      3.58640030e-02 -3.76586318e-02 5.29234707e-02 2.36861873e-02
      -8.17373693e-02 3.12484559e-02 -4.58682515e-02 7.30968565e-02
      7.94004649e-02 1.05369546e-01 4.35332097e-02 2.54788734e-02
      -5.73964790e-02 -1.49544412e-02 4.14940752e-02 4.69109938e-02
      4.76384424e-02 -4.52045053e-02 1.03089875e-02 -2.25022342e-02
      -8.84258095e-03 -2.09522173e-02 -3.92397074e-03 -2.57928297e-02
      2.62783542e-02 1.58471279e-02 -1.74159724e-02 -2.34130840e-03
      -5.16106226e-02 4.01931480e-02 -1.73776671e-02 6.64147884e-02
      -3.87751646e-02 -7.81090185e-02 -4.76331413e-02 2.57751960e-02
      5.92389293e-02 7.00606480e-02 1.50054961e-03 2.42568217e-02
      1.52009930e-02 4.16782871e-02 -9.45523009e-02 6.18606471e-02
      2.95717716e-02 4.20690998e-02 4.29306459e-03 -7.49036148e-02
      -6.34266343e-03 7.84627348e-02 -2.61707827e-02 3.72509472e-02
      3.28604281e-02 3.06507740e-02 -4.58273888e-02 2.76530161e-02
      -6.98913783e-02 -4.64910455e-02 1.38394227e-02 4.24226224e-02
      -5.35202362e-02 -2.99405749e-03 -4.69915345e-02 -7.90545437e-03
      -2.15722844e-02 1.48543501e-02 -4.40431871e-02 1.88923273e-02
      -6.22262619e-02 -4.58088219e-02 4.21721786e-02 6.70936257e-02
      -8.26547965e-02 -3.80053627e-03 -5.84471561e-02 2.90010292e-02
      -2.06652861e-02 -1.23184947e-02 -7.20290467e-02 2.19982341e-02
      2.02602707e-02 -1.80546027e-02 7.37757469e-03 7.35988840e-03
      8.19891784e-03 7.10270042e-03 -6.25040531e-02 4.25678492e-02
      -9.34302062e-03 -7.17467768e-03 -6.68406812e-03 2.63785105e-02
      4.50394824e-02 6.14472106e-02 6.82071075e-02 -1.69821624e-02
      1.42325154e-02 4.66279574e-02 6.66815341e-02 -4.15848903e-02
      2.72111092e-02 -4.03775387e-02 -7.72385299e-02 -5.97610325e-02
      -4.22949679e-02 -2.53259689e-02 -3.48437438e-03 -3.46891247e-02
      1.23330774e-02 5.00541180e-02 2.10904609e-02 -7.53106475e-02
      7.10930973e-02 7.72614181e-02 2.30492670e-02 -2.14833431e-02
      8.22422560e-03 2.62562204e-02 6.59033284e-03 5.78532778e-02
      -1.40651586e-02 2.91075907e-03 1.58725511e-02 2.00793669e-02
      -1.24755418e-02 -7.58168250e-02 -2.96281418e-03 2.45511755e-02
      -9.79046747e-02 -6.16950765e-02 -2.97958106e-02 3.87258604e-02
      -2.26253234e-02 -6.26760349e-02 4.05390151e-02 -1.12495292e-02
      -2.66351979e-02 -3.42407934e-02 -6.50369078e-02 2.34062150e-02
      -2.43400969e-02 8.95894691e-03 7.51512730e-03 9.92439594e-03
      -7.26546794e-02 -4.12189215e-02 6.21975400e-02 6.43313751e-02
      1.28956651e-02 4.61243019e-02 5.50918339e-04 -6.08853847e-02
      2.52316929e-02 3.12066041e-02 5.82649931e-02 9.19896588e-02
      -4.62979488e-02 7.50194630e-03 -9.30626597e-03 5.51808551e-02
      2.85383202e-02 -6.65907748e-03 -2.92696543e-02 -4.35453542e-02
      9.48938727e-02 1.65512916e-02 3.80735211e-02 3.75324837e-03
      7.82985389e-02 -8.18158388e-02 -9.84284803e-02 -3.55696045e-02
      5.46717681e-02 -6.72925413e-02 6.07247949e-02 4.22804430e-02
      4.90899838e-04 7.81511143e-02 5.43672650e-04 1.70340911e-02
      -8.71643517e-03 -5.94161525e-02 -1.78572908e-02 7.62590691e-02
      3.99801359e-02 -3.05327903e-02 -2.04849150e-02 -4.14827466e-02
      6.56127464e-03 -1.16916411e-02 3.86264846e-02 -4.12067510e-02
      8.21846128e-02 3.04326788e-02 -1.53630096e-02 -8.89546517e-03
      4.79735881e-02 5.33351265e-02 3.24883033e-03 -3.19346040e-02
      -5.68480492e-02 4.23516594e-02 2.77098548e-02 2.56229211e-02
      -5.77592738e-02 -1.47737497e-02 1.64774470e-02 -7.87312239e-02</_>
    <_>
      3.05960942e-02 3.05956006e-02 -4.54353057e-02 1.71885546e-02
      -3.87974381e-02 -7.71978274e-02 -8.84999931e-02 7.91947693e-02
      -3.43473405e-02 4.63103363e-03 6.43946454e-02 6.81513771e-02
      6.99614082e-03 1.74427982e-02 9.30476468e-03 -1.84758231e-02
      1.53874820e-02 8.65606144e-02 -5.80459312e-02 8.67849775e-03
      -1.64315421e-02 2.18050815e-02 2.83231400e-03 -5.03609478e-02
      -1.79584939e-02 -4.88618985e-02 -3.97061966e-02 -2.58798841e-02
      1.16811683e-02 -5.03641786e-03 3.30822379e-03 -1.76700205e-02
      1.62478182e-02 5.47200590e-02 -1.06678456e-02 -3.99689972e-02
      -4.24892865e-02 -7.25984052e-02 -3.21859941e-02 3.49349007e-02
      -8.85649994e-02 -2.19469294e-02 4.45613228e-02 2.71517932e-02
      -2.97810696e-02 4.78681773e-02 1.18097505e-02 2.79259719e-02
      -2.01991200e-02 4.22572996e-03 -2.26808935e-02 9.87892598e-03
      8.30437317e-02 1.43764000e-02 4.27471027e-02 4.64685680e-03
      -8.77708793e-02 5.89176379e-02 -3.35939340e-02 -1.12976087e-02
      -5.60655147e-02 1.01565838e-01 -4.93191034e-02 5.92035316e-02
      1.43459691e-02 3.42644611e-03 -7.18107671e-02 3.29658091e-02
      8.67323056e-02 -2.08474267e-02 5.64770307e-03 2.87019857e-03
      -2.21183081e-03 1.32913757e-02 9.05989390e-03 -6.73644766e-02
      -5.02504967e-02 -7.50235468e-02 2.33274940e-02 -1.78494491e-02
      2.23250389e-02 2.37490758e-02 2.78635160e-03 1.26316249e-02
      -5.04932217e-02 2.05495730e-02 -1.25605874e-02 3.41181159e-02
      1.57880988e-02 -1.02318134e-02 1.66174676e-02 7.39976019e-02
      3.59058380e-02 -6.20788261e-02 -3.07092611e-02 7.52547681e-02
      -1.30686462e-02 4.09226120e-02 -1.40359737e-02 -8.06969125e-03
      -1.64792836e-02 8.58516991e-02 3.65262106e-02 1.45539884e-02
      1.50821302e-02 -2.41871998e-02 2.67639291e-02 -7.49513581e-02
      -4.18022834e-02 -3.51651274e-02 3.33258063e-02 1.98718905e-02
      -2.58205924e-02 3.17860246e-02 -1.91487167e-02 2.50338465e-02
      7.02558905e-02 4.76209670e-02 -1.22384101e-01 -2.75658863e-03
      -5.54087907e-02 5.58703542e-02 4.22857469e-03 3.47305159e-03
      -2.19051857e-02 3.97308730e-02 -3.36513622e-03 -3.57957929e-02
      3.38506736e-02 -3.43468376e-02 -4.55884486e-02 1.90806985e-02
      6.91013783e-02 -3.84619124e-02 3.47382315e-02 -1.67228114e-02
      -7.12094828e-02 -2.55006962e-02 4.07135375e-02 4.13259119e-02
      -1.76334120e-02 3.29509601e-02 -3.92233506e-02 -3.51253301e-02
      2.60113664e-02 1.25775859e-02 -8.16147849e-02 1.83260012e-02
      7.10617155e-02 7.10763708e-02 8.71075839e-02 -4.81398553e-02
      -3.87066193e-02 9.66244489e-02 3.38399075e-02 -3.00283749e-02
      -1.62137318e-02 -6.18929714e-02 -7.06755295e-02 -7.27834851e-02
      4.01895568e-02 1.86934099e-02 -9.55134456e-04 6.07046857e-02
      5.78345545e-02 8.62390082e-03 -6.88592419e-02 7.69808441e-02
      -9.03410465e-02 4.20964099e-02 -5.80597296e-02 7.89393391e-03
      -7.06074685e-02 4.63467091e-02 -8.04896876e-02 -2.66724993e-02
      2.47614429e-04 8.26182216e-02 -2.93985996e-02 3.71625088e-02
      -2.22631134e-02 -6.16304837e-02 5.14484718e-02 1.10418843e-02
      4.06247638e-02 1.92029178e-02 2.95038186e-02 2.49342993e-03
      2.07855143e-02 3.94845791e-02 6.32143170e-02 4.03801128e-02
      4.80235070e-02 -7.24567473e-03 -2.25904472e-02 4.76814993e-02
      -1.16170794e-02 -2.45092269e-02 2.91477069e-02 -5.78408968e-03
      6.67458624e-02 8.15935433e-03 1.84039529e-02 -3.14794891e-02
      6.65205568e-02 -7.96302129e-03 -1.81158613e-02 3.22892405e-02
      -4.78791371e-02 5.45717403e-02 -1.47315431e-02 5.08000106e-02
      2.30239127e-02 5.27677834e-02 -5.64818755e-02 7.95978401e-03
      2.25873441e-02 2.54722033e-02 -4.26654480e-02 -3.85922082e-02
      -7.44078085e-02 3.23086493e-02 6.77143782e-02 1.03272160e-03
      9.99423340e-02 4.04487401e-02 9.23524145e-03 5.49512021e-02
      5.23082505e-04 3.94745804e-02 5.70334531e-02 -3.30955423e-02
      2.24013384e-02 -5.96677139e-02 1.21983443e-03 -2.16434039e-02
      -6.05722368e-02 5.96484058e-02 1.06895037e-01 -2.22520661e-02
      -2.85492186e-02 -2.38878583e-03 6.35971501e-02 2.80107744e-02
      6.94419723e-04 7.05308840e-02 1.62585583e-02 5.50786629e-02
      5.07832505e-02 2.26882789e-02 -5.96100241e-02 8.08632816e-04
      5.27899936e-02 3.80773731e-02 1.15715358e-02 -1.75418053e-02
      5.87000586e-02 5.51053919e-02 3.65067571e-02 -1.80945955e-02
      -4.55686776e-03 -6.60031736e-02 2.30945442e-02 -5.08848540e-02
      -7.88180251e-03 -9.33390781e-02 -2.19740644e-02 1.57363005e-02
      -1.69997499e-03 1.05181113e-02 -3.07456534e-02 -5.59169278e-02
      7.69723132e-02 3.50201055e-02 1.85666222e-03 2.38767900e-02
      1.35301314e-02 -8.37852061e-03 2.77187433e-02 5.11364155e-02
      -3.38271409e-02 -5.02771046e-03 -8.34300518e-02 -6.01873472e-02
      -8.23526271e-03 3.77785750e-02 -1.07558379e-02 -1.81167480e-02
      -2.81260218e-02 4.91394363e-02 -1.91369690e-02 2.36606635e-02
      5.28875291e-02 2.42181569e-02 5.36335632e-03 -2.99353283e-02
      -1.61090828e-02 -8.41797292e-02 5.87551529e-03 4.52786162e-02
      1.31839765e-02 1.18394066e-02 3.71671058e-02 1.58666465e-02
      1.10500157e-01 -2.41430216e-02 3.60689424e-02 -6.85959160e-02
      -5.78907989e-02 -1.70253254e-02 -4.89476994e-02 8.13266039e-02
      3.25815156e-02 3.38809304e-02 1.44085273e-01 1.56849518e-03
      -3.52916978e-02 -2.89230477e-02 7.17800632e-02 1.95875578e-02
      4.85460553e-03 -3.95820849e-02 -2.27991883e-02 7.19236657e-02
      -4.28796094e-03 2.15684026e-02 1.26409763e-02 6.47648722e-02
      -1.56116439e-02 7.44250715e-02 2.81565897e-02 4.30054665e-02
      -1.24343328e-01 2.69737411e-02 1.64362751e-02 2.49474999e-02
      -7.17016775e-03 -1.00367703e-02 -2.99135987e-02 7.14913988e-03
      6.05714247e-02 -7.14898435e-03 2.70702019e-02 -3.83095182e-02
      3.37958708e-02 2.92567089e-02 2.05086228e-02 4.52787466e-02
      9.58380103e-02 5.59596419e-02 1.31026227e-02 -3.35009508e-02
      3.14989276e-02 1.13636004e-02 5.08166477e-02 2.72514019e-02
      -7.22717075e-03 6.29566703e-03 9.06696729e-03 -4.22232896e-02
      -2.00395510e-02 -5.61695285e-02 -5.48942275e-02 -2.89926883e-02
      3.96418087e-02 -2.06616670e-02 -1.60983615e-02 2.48478074e-02
      -4.94894907e-02 -1.70461480e-02 -3.25144753e-02 -3.68225649e-02
      4.43229713e-02 -3.40201929e-02 -8.19527917e-03 1.40324265e-01
      -2.85262503e-02 4.00751345e-02 -2.41976213e-02 3.20600383e-02
      -3.77627686e-02 -2.82981852e-03 2.21043043e-02 1.79535616e-02
      4.61896174e-02 -4.48513106e-02 3.23510554e-04 -3.22573781e-02
      2.17024609e-03 -5.25211450e-04 -5.26393913e-02 3.66323031e-02
      1.60690546e-02 2.19466928e-02 2.95254309e-02 3.82556580e-02
      -1.18773384e-02 5.94506748e-02 -1.56017542e-02 2.96050906e-02
      3.55726257e-02 -3.37231494e-02 7.38784969e-02 -2.20796675e-03
      -2.80485842e-02 -3.32120098e-02 2.34899428e-02 2.75101513e-02
      -2.61268467e-02 5.54762082e-03 1.55068692e-02 2.82184985e-02
      2.40324773e-02 2.12993026e-02 -7.52054080e-02 2.29205545e-02
      6.92515075e-02 5.25508486e-02 1.10601764e-02 -2.28348505e-02
      2.73547843e-02 3.42701934e-02 -7.37149641e-02 4.06469405e-02
      2.10237633e-02 -4.58619797e-05 3.43150161e-02 2.39935834e-02
      5.89201376e-02 -4.74473014e-02 -7.54960813e-03 1.81783140e-02
      5.77622000e-03 -4.20562066e-02 2.42234170e-02 4.37110662e-02
      -1.05760004e-02 -8.25440884e-02 -3.57787311e-02 1.55222770e-02
      1.41381677e-02 -1.03107386e-03 9.35158227e-03 4.77816127e-02
      1.70534719e-02 8.40506777e-02 -3.93846445e-03 -1.50182107e-02
      1.53856054e-02 -3.50001641e-02 -8.68505053e-03 8.20541307e-02
      7.97307491e-02 -1.27663864e-02 -2.39101667e-02 -2.04900708e-02
      -3.59679088e-02 2.72298772e-02 5.15286401e-02 1.66403048e-03
      3.80696147e-03 -1.17674507e-02 2.58668363e-02 -5.83891571e-02
      -1.87439229e-02 -9.39503685e-03 1.18735684e-02 -3.90103832e-02
      -1.81313444e-04 8.55521634e-02 4.68377490e-03 8.14923942e-02
      5.34159690e-02 -6.88578784e-02 -5.86796887e-02 -2.76542660e-02
      -8.42445493e-02 -5.00560775e-02 3.81694548e-02 2.08067466e-02
      -4.47091870e-02 -1.52139831e-02 3.60610932e-02 5.70790283e-02
      -1.10873776e-02 -7.15234503e-02 -5.55106886e-02 2.60338746e-02
      3.47229876e-02 -9.12148654e-02 -7.11385086e-02 -5.49846552e-02
      -5.58837764e-02 2.49886271e-02 6.52323216e-02 -1.08598329e-01
      6.92107752e-02 9.12636444e-02 6.67590974e-03 -1.17300302e-02
      -5.03979884e-02 2.03055013e-02 -8.83450806e-02 2.35747360e-03
      -5.09057902e-02 4.00398560e-02 -5.16724400e-02 4.00269367e-02
      3.05310707e-03 -2.55378690e-02 4.92734984e-02 -3.85276079e-02</_>
    <_>
      4.46760543e-02 -2.95443349e-02 1.22401677e-02 7.78588280e-02
      5.11420183e-02 -7.44480686e-03 1.77926128e-03 1.00878747e-02
      -4.23498899e-02 3.48611958e-02 1.10084102e-01 8.00773203e-02
      1.00100972e-02 6.02579452e-02 2.05229186e-02 3.40108983e-02
      3.42337787e-02 7.15845376e-02 -5.45617240e-03 4.48067784e-02
      -5.16017713e-02 -1.53214158e-02 1.02184765e-01 -7.88766816e-02
      -5.78120016e-02 -7.61500672e-02 3.25937755e-02 -3.21160443e-02
      -3.69898565e-02 3.17642763e-02 -5.26118279e-03 -3.94800343e-02
      -4.02413644e-02 1.73368547e-02 -8.87257159e-02 -5.49142510e-02
      1.59444232e-02 2.34608017e-02 -6.29380196e-02 2.20087375e-02
      -3.74502577e-02 2.13667303e-02 4.36565001e-03 1.11434266e-01
      2.36533266e-02 1.97988227e-02 7.51077235e-02 8.71962160e-02
      -7.08406493e-02 9.25094076e-03 -5.00802584e-02 -2.41398178e-02
      6.14700802e-02 2.12318506e-02 -3.72077785e-02 -3.31393592e-02
      -2.44845785e-02 5.02613857e-02 -4.65880893e-02 -2.29092930e-02
      -2.53039431e-02 -8.65075644e-03 -5.58797829e-03 -4.94279014e-03
      6.05661459e-02 -9.31553252e-04 -2.97888294e-02 -8.36864263e-02
      5.06505445e-02 1.63267890e-03 4.26119938e-02 4.86293286e-02
      3.53416391e-02 -5.45862913e-02 -6.11058995e-02 -7.69902905e-03
      4.99673337e-02 -9.48451534e-02 3.91099192e-02 2.45282520e-02
      4.79259854e-03 4.71803024e-02 -2.69373208e-02 4.82296757e-03
      8.53398908e-03 7.25869834e-02 -3.36549914e-04 3.08996625e-02
      -3.39325257e-02 -4.51735817e-02 -2.53296439e-02 3.04130092e-03
      -5.88001199e-02 -6.63054511e-02 -3.31333606e-04 -6.54612407e-02
      -1.16872285e-02 6.92905411e-02 -4.99610649e-03 3.62486728e-02
      -1.81067418e-02 5.52812368e-02 -4.59871478e-02 4.32418287e-02
      3.14980969e-02 4.35530767e-02 1.56426523e-03 1.34210447e-02
      -3.14387237e-03 -2.59609055e-02 1.93468865e-03 -2.53334753e-02
      -5.35703823e-02 -3.28464620e-02 -1.38983428e-02 3.59206460e-02
      5.63740395e-02 2.76899189e-02 -9.13306605e-03 -2.02433616e-02
      1.07484637e-02 1.46561498e-02 3.73497978e-02 -3.03517189e-02
      -2.34690793e-02 -3.86105888e-02 -1.37962243e-02 -2.91551580e-03
      3.06325145e-02 -2.94752102e-02 -6.64653210e-03 -6.08371086e-02
      4.85284775e-02 6.23592921e-02 -3.98478061e-02 -1.23222661e-03
      -1.02421775e-01 -6.63395971e-04 6.20387010e-02 1.63236279e-02
      1.81405358e-02 7.89616033e-02 -1.49317551e-02 3.85831967e-02
      -2.35576369e-03 1.01886451e-01 3.01303901e-02 -7.93580059e-03
      3.27483565e-02 6.16212599e-02 2.49685831e-02 -1.37398588e-02
      -6.91801608e-02 5.10294214e-02 -1.11943064e-02 -2.84325462e-02
      -5.16029708e-02 -1.95006132e-02 -6.06981553e-02 -2.26025991e-02
      -7.94967450e-03 3.98073867e-02 2.16915421e-02 8.98705646e-02
      -1.19296443e-02 2.11601015e-02 -1.02756470e-01 1.05393520e-02
      -4.63677384e-02 -3.41462269e-02 -2.74828612e-03 -5.11519611e-02
      -1.99179538e-02 6.57377094e-02 3.27349378e-04 4.98577878e-02
      4.56373766e-03 3.14674228e-02 1.99973043e-02 8.62550959e-02
      -9.32973437e-03 -1.29675930e-02 3.44562829e-02 -1.50096221e-02
      6.40198737e-02 -6.57457709e-02 6.38599768e-02 6.49053156e-02
      4.10128757e-02 -4.92144339e-02 1.45648292e-03 1.08273211e-03
      2.19838955e-02 7.35657942e-03 5.49948514e-02 8.48011300e-02
      -4.11014296e-02 -2.30540633e-02 1.30606852e-02 7.07508698e-02
      9.99826565e-02 -4.45570014e-02 8.84496793e-03 -4.98159118e-02
      3.87637131e-02 8.37816894e-02 3.68257575e-02 4.06296961e-02
      4.19458980e-03 -3.87486443e-02 -7.26511106e-02 8.54596216e-03
      6.21406594e-03 -6.99819124e-04 -7.03303218e-02 2.19194014e-02
      6.29837140e-02 3.20777367e-03 5.90186007e-03 6.50392547e-02
      -7.92887583e-02 -6.83843670e-03 9.71573368e-02 -1.44603429e-02
      6.65540248e-02 7.32382685e-02 -1.94439036e-03 3.79020534e-02
      -3.24903615e-02 3.82549292e-03 -2.88160108e-02 2.62059774e-02
      5.69755659e-02 -2.42210813e-02 -6.64446801e-02 -1.57397110e-02
      1.57297235e-02 3.43148373e-02 4.79188040e-02 2.25000717e-02
      -1.27436360e-03 -5.99908791e-02 2.69369911e-02 5.33348590e-04
      3.65797728e-02 2.59246323e-02 -8.36607441e-02 -1.61396619e-02
      2.32030191e-02 6.21371046e-02 2.77165659e-02 3.97729315e-02
      3.17840395e-03 1.99201163e-02 -3.08400467e-02 3.16340625e-02
      -2.36622561e-02 6.56488091e-02 -1.82960276e-02 -3.44623476e-02
      -2.56912354e-02 -2.20137183e-02 2.88019516e-03 2.71891747e-02
      -6.25608116e-02 1.19681917e-02 2.30309106e-02 -9.57582816e-02
      3.88912559e-02 3.76548897e-03 -1.81091707e-02 5.79952635e-03
      2.95559429e-02 -2.54644006e-02 -1.28615558e-01 1.96918417e-02
      -1.67708732e-02 -2.38974616e-02 7.24657029e-02 1.27885453e-02
      4.82603051e-02 2.87862942e-02 -5.69395237e-02 -1.56003851e-02
      3.63177918e-02 8.70278012e-03 1.85029469e-02 7.46698724e-03
      2.77693085e-02 -8.15483648e-03 -2.12122779e-02 -3.62886526e-02
      5.38710393e-02 8.63661915e-02 2.70273909e-02 -4.72225957e-02
      -9.93487909e-02 1.41095202e-02 3.11487187e-02 -5.53807206e-02
      2.69743260e-02 6.62549213e-02 -2.59438641e-02 -3.01602995e-03
      7.45934844e-02 1.09235663e-02 -1.96062624e-02 1.78030040e-02
      -1.34035483e-01 7.85745159e-02 4.96236607e-02 7.39781559e-02
      1.48443948e-03 4.51603346e-02 6.41864613e-02 7.55863637e-02
      6.99751126e-03 2.78049130e-02 9.12648719e-03 1.06373988e-02
      4.72171046e-02 1.73175067e-03 3.05718575e-02 6.86350167e-02
      4.17986959e-02 5.08153327e-02 -4.68696747e-03 8.09640512e-02
      6.35832250e-02 -2.22581774e-02 6.67936727e-02 3.19997445e-02
      -4.32970114e-02 -1.19239383e-04 3.11755016e-02 6.11717626e-02
      4.74264733e-02 1.08261462e-02 -3.69580239e-02 -1.37711028e-02
      9.36256442e-03 4.96542230e-02 -2.95343101e-02 7.73478597e-02
      -2.25968957e-02 5.73291406e-02 -7.48040378e-02 2.31115315e-02
      3.82957570e-02 -2.56514791e-02 2.96668373e-02 -2.79930271e-02
      3.48243974e-02 -3.42977978e-02 1.42980926e-02 4.14996594e-02
      -2.43435204e-02 3.81570049e-02 1.31640546e-02 3.26708928e-02
      1.21323892e-03 -1.58488024e-02 -3.43609303e-02 1.64007060e-02
      -1.84850302e-02 -2.21176594e-02 -5.81602454e-02 -3.05866301e-02
      4.89433147e-02 7.45402370e-03 -6.93685189e-02 -1.37891248e-02
      1.72152948e-02 -8.03378597e-03 2.76554879e-02 8.09249431e-02
      -4.17346694e-02 2.78856829e-02 1.58924703e-02 -4.19975370e-02
      -8.00883688e-04 -3.13560814e-02 -5.68754375e-02 -2.25272365e-02
      -4.43732738e-03 2.47436911e-02 3.79407741e-02 2.26832684e-02
      1.09621063e-02 -5.73138893e-02 1.76322591e-02 -3.27020437e-02
      -1.98141970e-02 2.07052077e-03 2.14465018e-02 -3.76015948e-03
      -8.44968297e-03 -1.49391368e-02 1.77622084e-02 -3.42229195e-02
      7.23450072e-03 6.27421439e-02 7.19188526e-02 -3.65362018e-02
      5.08042946e-02 -3.10333874e-02 -4.09504138e-02 -8.27085003e-02
      -2.38162708e-02 2.58830395e-02 1.82286352e-02 -1.02126021e-02
      -3.86554748e-02 2.03499291e-02 5.79954535e-02 1.97990462e-02
      1.50853982e-02 5.26297204e-02 3.88619192e-02 -1.80600099e-02
      5.02136201e-02 -3.28693874e-02 -2.03565527e-02 6.19641356e-02
      -7.97645748e-03 1.77900940e-02 6.59663288e-04 4.74076606e-02
      3.68397348e-02 -5.08062774e-03 -5.21817952e-02 4.53655459e-02
      -1.49655640e-02 -3.68058607e-02 -4.90742438e-02 -4.46963793e-04
      -7.53458142e-02 -7.05455989e-02 -4.26058806e-02 -5.33291511e-03
      -3.99114415e-02 -5.48608042e-02 -6.62862090e-03 8.11033621e-02
      -4.62237559e-02 -4.86841705e-03 1.32353846e-02 -4.78852652e-02
      -3.46431993e-02 -1.00543620e-02 2.20576767e-02 7.73852170e-02
      -4.44021225e-02 2.31797341e-02 5.72262332e-02 -1.33300675e-02
      -2.03613378e-02 1.42018823e-02 1.09821213e-02 -1.46896606e-02
      5.29210269e-02 8.92722141e-03 3.78430821e-03 4.10918631e-02
      -6.94715381e-02 -3.02935913e-02 3.25219035e-02 5.61999455e-02
      3.94517332e-02 4.59345840e-02 5.13530262e-02 1.32808769e-02
      7.77374804e-02 -8.71769860e-02 -9.32774395e-02 -5.57484217e-02
      4.52877954e-03 3.76407467e-02 -3.13895680e-02 1.27309542e-02
      -9.59989503e-02 2.37402637e-02 1.53399948e-02 -3.83384526e-02
      -2.89377254e-02 7.06127062e-02 -1.25527084e-02 4.33399379e-02
      4.65287268e-02 -4.49724831e-02 -8.23315512e-03 -3.86673883e-02
      -1.44080549e-01 -2.51600817e-02 -2.45046411e-02 -9.71784592e-02
      5.28947376e-02 5.95946833e-02 1.46554615e-02 3.71161923e-02
      -1.43666547e-02 2.52447724e-02 -6.98029548e-02 1.94363911e-02
      -6.03830703e-02 4.10277806e-02 1.91740841e-02 3.05553153e-02
      -6.43638894e-02 1.12181948e-02 -5.40146185e-03 -5.23887239e-02</_>
    <_>
      2.18146183e-02 2.76143383e-02 -5.34117408e-03 6.47314191e-02
      3.24960761e-02 -9.45480540e-03 -4.31643426e-02 8.94432608e-03
      4.65528667e-02 -5.68893403e-02 -3.44646573e-02 1.13945256e-03
      7.72705651e-04 1.83200371e-02 -5.33524789e-02 -9.79752373e-03
      4.09997441e-02 8.74463692e-02 -4.72619571e-02 1.18033811e-02
      -1.23342704e-02 5.84396627e-03 1.43079907e-02 1.94951345e-03
      2.59740441e-03 -1.96578875e-02 7.73665383e-02 -6.04704442e-03
      5.64478561e-02 3.80549580e-02 9.50056165e-02 1.20747807e-02
      1.20927393e-02 8.75707902e-03 7.17916638e-02 -5.67664951e-02
      -1.03034442e-02 -7.13872090e-02 -7.13045374e-02 3.25643979e-02
      -2.40887534e-02 -6.06528819e-02 -2.87692863e-02 -4.13658172e-02
      -3.82395312e-02 -6.22965842e-02 -2.92642005e-02 1.93579346e-02
      -7.75345974e-03 3.49071585e-02 1.59769449e-02 5.27416309e-03
      3.01000886e-02 2.35369895e-02 1.89156439e-02 -1.07558724e-02
      -3.93917300e-02 -2.82807574e-02 6.45628050e-02 4.15360592e-02
      5.70272319e-02 5.25298936e-04 6.55506924e-02 5.74561879e-02
      6.56402553e-05 2.62504760e-02 1.58250816e-02 2.92936433e-02
      9.30058286e-02 -5.38991950e-02 -4.36661318e-02 -1.52206291e-02
      -2.92765480e-02 5.82632162e-02 3.76670137e-02 3.67387687e-03
      2.56547518e-03 -6.20557107e-02 5.01918681e-02 3.14086042e-02
      5.23915440e-02 -5.46877719e-02 5.83007187e-02 2.19797287e-02
      2.78806780e-03 -1.00288866e-02 4.72547449e-02 2.20469590e-02
      5.68966493e-02 -3.30125950e-02 -7.97605328e-03 -7.94540811e-03
      7.55545422e-02 2.68480573e-02 -4.89215963e-02 4.03234698e-02
      -3.58511694e-02 -3.55524160e-02 -2.51714955e-03 3.09341587e-02
      5.17434068e-02 1.29890582e-02 2.31960379e-02 9.09548835e-04
      1.92512870e-02 7.39831477e-02 -3.50030549e-02 -9.99341831e-02
      4.40759361e-02 -3.57383527e-02 4.91142794e-02 6.08264208e-02
      -6.12100884e-02 6.44387444e-03 1.43618928e-02 2.51084827e-02
      -1.32158375e-03 -2.58787759e-02 -3.62206995e-02 4.46811244e-02
      4.79547307e-02 6.37543872e-02 -7.38513097e-02 1.08964592e-02
      -4.93398830e-02 -2.69465894e-02 -1.96259953e-02 -7.86689967e-02
      6.91760005e-03 7.90856257e-02 1.87168270e-02 7.54687749e-03
      1.48414783e-02 -7.23166913e-02 1.20279481e-04 -3.50441523e-02
      -7.61639699e-02 -1.27426133e-01 5.82727492e-02 1.89530477e-02
      2.10917387e-02 9.09665674e-02 -2.51782686e-02 5.03681973e-03
      5.29615395e-02 9.72397719e-03 -3.08642574e-02 1.58955697e-02
      -1.26735074e-02 -2.62954738e-02 -1.84787437e-02 -9.80850193e-04
      4.87459637e-02 6.85128570e-02 -1.61624979e-02 -8.50126892e-02
      -9.74812452e-03 -1.91845484e-02 -5.85546345e-02 -9.01392028e-02
      3.05424966e-02 6.68487474e-02 2.69859489e-02 -7.61000440e-03
      7.26945028e-02 5.78099973e-02 -4.14503627e-02 6.30687997e-02
      -4.73599210e-02 -2.05308362e-03 -1.88322365e-02 6.20904751e-03
      1.62850581e-02 5.61280064e-02 -2.00765263e-02 -4.72347066e-02
      -6.88620284e-02 9.15152859e-03 -5.08260839e-02 1.49594154e-02
      9.01145022e-03 2.62574130e-03 -3.27104400e-03 -3.43616009e-02
      6.58771470e-02 4.19812128e-02 -3.86177115e-02 -5.96317835e-02
      -3.38565633e-02 1.02076931e-02 -7.23175034e-02 6.62890077e-02
      2.76960284e-02 -4.12127413e-02 -2.05707960e-02 -1.22017451e-02
      1.45865334e-02 2.87139090e-03 1.29065886e-01 -2.19849367e-02
      1.80663972e-03 -2.74233595e-02 2.18674485e-02 9.52611968e-04
      4.22421806e-02 -1.05182946e-01 -3.58644873e-03 4.44750972e-02
      -2.15055738e-02 6.85168505e-02 -4.32849340e-02 1.10599573e-03
      -9.15370323e-03 8.62692818e-02 -1.91668533e-02 9.07905549e-02
      -1.01917107e-02 6.38306588e-02 -6.40636161e-02 -1.68122780e-02
      -2.79068444e-02 4.33861930e-03 6.00431021e-03 3.57385837e-02
      1.01625295e-02 2.48569548e-02 -1.59210507e-02 -5.41378446e-02
      3.54212597e-02 -4.49329838e-02 7.46775270e-02 -5.14173880e-02
      4.18598652e-02 -7.50842243e-02 -1.48495671e-03 2.71072220e-02
      -7.61965886e-02 6.09180443e-02 2.45352667e-02 -1.93822794e-02
      4.36007865e-02 -1.92091800e-02 2.30603684e-02 -8.56393389e-03
      2.80797947e-02 7.50349760e-02 4.26034890e-02 1.01932464e-02
      -1.04442555e-02 -6.55576736e-02 -2.55806092e-02 -2.81128678e-02
      6.76729009e-02 4.39140312e-02 1.60421361e-03 -9.16707292e-02
      2.26671081e-02 8.53328221e-03 1.70770697e-02 1.76367182e-02
      4.68607284e-02 -2.26525497e-02 3.36911567e-02 -7.82340914e-02
      9.47934762e-03 -6.15268089e-02 5.34460554e-03 6.51478544e-02
      -2.09682640e-02 -4.57486063e-02 5.74731976e-02 -1.10578779e-02
      6.05903007e-02 -3.28970887e-02 4.48950008e-02 7.71702528e-02
      3.86828221e-02 5.48311230e-03 -2.71199159e-02 2.46568061e-02
      1.38832163e-02 -5.31400293e-02 -8.50762650e-02 7.49913454e-02
      -3.31490040e-02 -4.90699522e-02 -2.33510993e-02 -1.08674252e-02
      -3.02908551e-02 2.83843856e-02 -9.59311351e-02 -4.67354283e-02
      -2.20059324e-02 -8.51305425e-02 7.93529395e-03 9.33694690e-02
      -7.57800341e-02 -3.58274877e-02 3.92355882e-02 4.54690568e-02
      1.13333650e-01 -2.58205384e-02 7.20242709e-02 2.68755276e-02
      -2.63977498e-02 -6.03383668e-02 6.59820139e-02 -2.68166680e-02
      -8.36040154e-02 -2.84841359e-02 -5.21274209e-02 -1.35119143e-03
      5.92573769e-02 -1.09599987e-02 2.84255538e-02 2.36949790e-02
      -5.20048961e-02 1.96918473e-02 2.95220092e-02 6.65525114e-03
      9.99697857e-03 -8.83900076e-02 6.28116578e-02 5.55888228e-02
      -4.76185083e-02 -3.00254077e-02 8.75555072e-03 9.67269205e-03
      3.48000675e-02 5.32234199e-02 5.73390275e-02 -1.67485774e-02
      -4.21965085e-02 -8.46472511e-04 -1.77168269e-02 3.20912488e-02
      2.67329067e-02 -7.83412065e-03 1.80401597e-02 3.85627300e-02
      3.67483124e-02 -9.12550241e-02 -3.04225367e-02 -5.42719848e-02
      6.20304495e-02 -3.20644304e-02 -7.36776441e-02 7.14909062e-02
      1.83677319e-02 -3.24406335e-03 7.49587873e-03 -7.95004442e-02
      4.41899262e-02 -2.20897757e-02 -1.77521240e-02 5.06442226e-02
      7.62477238e-03 1.03464012e-03 -6.16839230e-02 4.41129208e-02
      -6.34155869e-02 1.36340568e-02 -5.33411726e-02 -7.73255201e-03
      4.21121791e-02 5.89968311e-03 -2.02288441e-02 5.13552390e-02
      -3.15839574e-02 5.33252731e-02 9.49561968e-03 2.65372619e-02
      1.21398950e-02 4.85856012e-02 -1.77242979e-02 5.23288222e-03
      -4.67144102e-02 7.54900509e-03 -1.03079882e-02 3.42250466e-02
      -6.12488315e-02 8.72739702e-02 -1.77974328e-02 -4.56800200e-02
      -1.89448390e-02 -1.04325488e-02 -1.68893430e-02 -1.43001543e-03
      -9.55266599e-03 3.33108045e-02 -5.80834970e-02 3.38066593e-02
      -9.92524028e-02 1.59733575e-02 -2.19909456e-02 6.35549100e-03
      3.23328674e-02 9.35750753e-02 4.35612835e-02 -1.00269355e-01
      -1.19939120e-02 1.28118573e-02 2.37836572e-03 3.76765616e-02
      -1.69963911e-02 -6.04081452e-02 -2.80832928e-02 -2.71910410e-02
      -2.63500288e-02 1.73861273e-02 3.68767045e-03 -3.64224128e-02
      3.77430879e-02 1.18020028e-02 -7.52992183e-02 -2.38433201e-02
      5.51577518e-03 -3.96217639e-03 1.18824178e-02 8.86286329e-03
      3.02926246e-02 4.85015213e-02 -6.01290492e-03 4.89212759e-02
      1.82167944e-02 3.16285864e-02 -6.62396550e-02 2.42105946e-02
      -1.15149021e-02 -3.02909557e-02 -5.67639731e-02 -5.59045225e-02
      -2.87709050e-02 -3.49360215e-03 -4.47042622e-02 -2.93463971e-02
      6.29181915e-04 2.67590466e-03 -6.16613310e-03 6.99945986e-02
      -5.49657345e-02 -3.92729267e-02 -6.59622028e-02 7.83148594e-03
      -7.72449188e-03 8.50767642e-02 -4.75442782e-02 -5.02712950e-02
      3.58423963e-02 -1.43156378e-02 3.78512926e-02 -2.02816129e-02
      4.23057340e-02 1.13023082e-02 -2.02964451e-02 -2.97800987e-03
      -9.81652960e-02 7.09511572e-03 1.39029045e-02 1.20221712e-01
      1.40996883e-02 7.91190937e-03 2.08240487e-02 2.95838024e-02
      1.19758968e-03 -1.42608685e-02 5.06208390e-02 -1.56448469e-01
      2.05172021e-02 -1.85017325e-02 -6.32265164e-03 1.49764493e-02
      -2.68116407e-02 1.88170746e-02 -3.33476551e-02 6.12973161e-02
      -2.72644311e-03 -1.21289231e-01 4.56533320e-02 1.66252293e-02
      8.56101513e-02 3.36915366e-02 -2.26150285e-02 3.52298655e-02
      5.36344200e-03 -2.08961461e-02 -4.11057323e-02 3.53443716e-03
      7.59849604e-03 -3.27334143e-02 -3.99721116e-02 -1.47265466e-02
      7.65841408e-03 2.81974860e-02 1.02855943e-01 -2.40466427e-02
      -8.40816740e-03 3.27206515e-02 -2.33256444e-02 -5.50345797e-03
      3.25363055e-02 -3.16108689e-02 -6.30105007e-03 -3.57609056e-02
      1.51315778e-02 8.11833795e-03 3.08549814e-02 2.52886880e-02
      4.24324870e-02 -9.40422714e-03 8.50560889e-02 -2.11964976e-02</_>
    <_>
      2.64871716e-02 -7.57055008e-04 7.54721463e-03 1.62266139e-02
      7.10052019e-03 -3.59526984e-02 -2.24028938e-02 9.06371325e-02
      -2.83859223e-02 3.86572555e-02 -4.38212007e-02 5.84135838e-02
      2.59590689e-02 -1.17846662e-02 1.50635699e-02 1.71505678e-02
      1.48136793e-02 3.92506197e-02 -5.98676428e-02 5.49106970e-02
      -3.62752862e-02 5.36447130e-02 1.78005677e-02 3.79572473e-02
      2.94310153e-02 -8.77246074e-03 3.77982110e-02 4.23349701e-02
      3.22569497e-02 3.66827510e-02 -5.97631838e-03 -5.67046329e-02
      -3.42935845e-02 -7.74307624e-02 -1.33816758e-02 -3.42498012e-02
      -5.03769517e-02 1.74442604e-02 1.40102888e-02 -3.43965180e-02
      -1.10593662e-02 4.78319749e-02 -9.34093818e-03 -2.86185555e-03
      1.78538803e-02 6.36948571e-02 2.43514664e-02 -5.35907112e-02
      8.13118145e-02 3.95002179e-02 -4.16200496e-02 -6.00792840e-03
      8.51273816e-03 -1.08590070e-02 -9.43180732e-03 6.23176135e-02
      -1.08486051e-02 -3.56956497e-02 -1.70146134e-02 -8.01021904e-02
      -1.20068695e-02 -4.34553958e-02 -2.38549267e-03 4.76397686e-02
      3.78674604e-02 -3.52662131e-02 -8.10129195e-02 -3.04509178e-02
      6.42037764e-02 2.73627564e-02 -3.45464982e-02 8.95946994e-02
      -4.74478379e-02 -5.30107878e-02 6.63348846e-03 3.47183412e-03
      -4.67576049e-02 -9.05326307e-02 4.17614020e-02 -3.89011689e-02
      1.99499354e-02 -4.89741527e-02 1.42914867e-02 -7.21142814e-02
      -2.93212701e-02 3.00664883e-02 -5.64947613e-02 -8.57363269e-03
      3.10479272e-02 2.69690086e-03 -1.79545954e-02 -2.60255951e-02
      3.57909501e-02 -6.43568160e-03 -9.03471857e-02 -5.02966121e-02
      -4.34732391e-03 -2.86846999e-02 5.41906916e-02 -3.72231565e-02
      -5.56091145e-02 2.79401019e-02 1.64471995e-02 3.22925486e-02
      3.20025980e-02 -1.72201097e-02 -8.09445679e-02 -3.30871791e-02
      4.78094183e-02 5.99354506e-02 -7.27642849e-02 8.70108046e-03
      7.91894458e-03 3.66688520e-02 2.81755850e-02 -3.26150432e-02
      -3.38351578e-02 2.28355024e-02 -7.79179782e-02 -9.02070925e-02
      3.95017341e-02 -2.14046668e-02 -1.46840736e-02 -4.98677865e-02
      7.65000433e-02 4.03299034e-02 4.30948921e-02 -3.05749699e-02
      -4.61270176e-02 -9.11708735e-03 3.23897377e-02 -4.91402559e-02
      -3.12840492e-02 2.29652859e-02 2.58818921e-02 -5.04284166e-02
      -4.13491614e-02 4.46937494e-02 2.71167979e-02 -1.23702036e-02
      -1.02415308e-02 6.94567934e-02 2.05157343e-02 1.27716996e-02
      1.72814354e-02 6.20442741e-02 7.81176984e-02 -3.85533720e-02
      -1.54841254e-02 5.27698696e-02 -5.57397306e-02 -3.86208892e-02
      6.64290637e-02 4.59958948e-02 -3.34142409e-02 -1.39089404e-02
      -8.72088596e-03 -5.22041991e-02 -2.52055228e-02 2.34648325e-02
      -2.85367705e-02 -2.98208781e-02 -1.76689941e-02 -1.63367996e-03
      -6.63604960e-02 -1.65740680e-02 1.25217428e-02 -4.15704064e-02
      2.85286270e-02 -8.59311149e-02 -3.07939742e-02 -3.06194294e-02
      1.96989030e-02 1.10678762e-01 2.62535270e-03 4.92305607e-02
      -1.80185009e-02 5.78831248e-02 1.09453639e-02 6.26662746e-02
      2.72609550e-03 -9.26253200e-02 3.63664553e-02 1.66356529e-03
      1.11577563e-01 -5.70950285e-02 3.14299725e-02 -1.42715080e-02
      8.16509593e-03 -5.40492162e-02 -1.28655639e-02 5.06556332e-02
      -5.46220802e-02 -1.20491851e-02 7.82121439e-03 5.30828163e-02
      -2.04561073e-02 -1.19926259e-01 8.42405781e-02 -2.67252903e-02
      -1.13985930e-02 4.18564677e-02 -3.95220667e-02 -7.49276653e-02
      2.03633085e-02 -1.83327449e-03 1.70879737e-02 1.91314258e-02
      1.81449540e-02 -4.71304469e-02 -3.65150943e-02 6.22419789e-02
      1.75295398e-02 -5.59610724e-02 1.61019142e-03 4.47914377e-02
      -2.57919636e-02 -2.32756194e-02 -4.71625701e-02 6.03002775e-03
      -3.68297771e-02 1.01759978e-01 -1.79996565e-02 9.92747992e-02
      4.03461345e-02 -9.92924906e-03 -5.30487113e-02 1.34248193e-02
      1.12511910e-01 -2.37364173e-02 -6.05002642e-02 -1.02273695e-01
      1.14693947e-01 -4.73247506e-02 -4.09781933e-02 1.67973079e-02
      4.71496256e-03 8.40114951e-02 1.45243257e-02 5.68524152e-02
      7.34171970e-03 -2.02899110e-02 -3.09927817e-02 -3.53901833e-02
      -4.14269976e-02 -1.41593511e-03 -4.32429872e-02 -4.43358906e-02
      1.35513106e-02 2.04510801e-02 3.52344662e-02 3.52897905e-02
      -2.23455913e-02 6.72485083e-02 2.71203872e-02 1.55215645e-02
      1.17987003e-02 6.18476495e-02 -4.82635684e-02 -4.35438864e-02
      3.54588851e-02 -1.75021049e-02 -3.58158983e-02 1.82591621e-02
      6.23034574e-02 -4.78820875e-02 -5.94194122e-02 4.32463223e-03
      -9.72714461e-03 2.73112636e-02 1.99632416e-03 -2.62817135e-03
      6.25868738e-02 -4.13924120e-02 -1.64462402e-02 5.24053201e-02
      6.13685837e-03 -3.96820158e-02 5.86317666e-02 4.29077893e-02
      2.07158606e-02 -7.80165568e-02 -4.67752554e-02 2.12423671e-02
      4.09179330e-02 5.89431897e-02 2.44099135e-03 6.06137738e-02
      -3.62612493e-03 2.16203742e-02 -8.19422826e-02 -7.92626105e-03
      2.07881443e-03 6.13647439e-02 1.35754868e-02 -2.62903031e-02
      -7.13194832e-02 -4.25614193e-02 -7.51147326e-03 -2.04955824e-02
      2.48986259e-02 3.99724171e-02 4.48153690e-02 -2.77645811e-02
      2.44782008e-02 -3.20949480e-02 9.07671899e-02 -3.04758698e-02
      -1.09145358e-01 1.94892287e-02 8.91472846e-02 -1.68741401e-03
      -7.70752355e-02 4.50353809e-02 3.16558927e-02 1.47871543e-02
      -5.30199660e-03 4.86290678e-02 -8.36686417e-02 -3.23857218e-02
      7.33824726e-03 -8.29946622e-02 5.78909703e-02 6.25324845e-02
      -2.59540789e-02 2.87894905e-03 -3.34477201e-02 -7.03221038e-02
      -1.43939927e-02 -6.85525835e-02 1.24843745e-02 -5.57099916e-02
      6.06987104e-02 -8.01803917e-02 6.93024509e-03 8.50075185e-02
      8.94515123e-03 4.55151722e-02 1.31573947e-02 1.89634711e-02
      -2.68339831e-02 4.89680022e-02 -5.74466139e-02 1.01020008e-01
      1.93062481e-02 4.48266491e-02 2.45959405e-02 5.77865690e-02
      2.48675514e-02 4.33933809e-02 5.05236387e-02 5.67851635e-03
      2.73832548e-02 -4.85942513e-02 -2.06660237e-02 3.50224301e-02
      -6.52655140e-02 -2.73911264e-02 1.90105159e-02 -3.64719331e-02
      -5.20312553e-03 -4.15820256e-02 5.26458137e-02 7.93381557e-02
      7.92467594e-02 2.66302237e-03 3.20308134e-02 3.53255868e-03
      6.24584146e-02 7.91925266e-02 -3.49553712e-02 -3.00470479e-02
      6.95529133e-02 -7.39347115e-02 1.71050802e-02 -1.60462465e-02
      -3.51924039e-02 -2.07358208e-02 -3.46762761e-02 -1.37783326e-02
      4.66804206e-03 5.57638854e-02 5.06715067e-02 8.19262117e-03
      1.16003398e-02 4.50414009e-02 4.31677997e-02 8.41824152e-03
      6.62580365e-03 -2.39860173e-02 -9.67695192e-03 -8.12181160e-02
      -9.03053284e-02 1.83989271e-03 3.80504876e-04 1.71278864e-02
      6.20503686e-02 -4.42402437e-02 -8.29686448e-02 -1.52370548e-02
      3.59246973e-03 2.04486307e-02 2.28537992e-02 2.78653856e-02
      -7.19076302e-03 -2.65216641e-02 -7.53545612e-02 4.80510406e-02
      -8.98247883e-02 1.56194661e-02 -3.52343693e-02 2.29119938e-02
      -4.35864702e-02 3.94369811e-02 6.61108419e-02 2.41409261e-02
      4.43861000e-02 3.23798023e-02 1.61552411e-02 -1.13338837e-02
      -4.14454518e-03 3.30944061e-02 1.90128777e-02 1.61471087e-02
      3.99362408e-02 -4.79207747e-02 5.86907566e-03 -2.77850404e-02
      -2.48816181e-02 -1.56538300e-02 -5.24559766e-02 3.75895528e-03
      -5.08725923e-03 8.50015972e-03 -3.97456959e-02 2.75645908e-02
      3.84578016e-04 8.30772147e-03 2.04774588e-02 2.74096560e-02
      3.71942297e-03 -9.70565900e-03 -4.63763438e-02 -7.57754296e-02
      -3.30428630e-02 -2.74485312e-02 5.61500043e-02 -6.06928207e-02
      -3.75325717e-02 3.64334434e-02 4.78195250e-02 1.48109784e-02
      7.51283243e-02 8.20416436e-02 5.89912646e-02 -1.90812945e-02
      6.71558529e-02 -4.85961102e-02 -8.15791488e-02 -7.48045519e-02
      -2.24605557e-02 -1.15424395e-02 2.80073062e-02 4.97217998e-02
      -1.75477061e-02 7.29943365e-02 3.64480056e-02 -3.94869968e-02
      5.61864004e-02 -5.37185036e-02 -3.56410518e-02 4.65808176e-02
      3.08468081e-02 -1.34291844e-02 2.81080953e-03 -1.69004276e-02
      -6.34367689e-02 -1.42060863e-02 -1.80965662e-02 -2.82135569e-02
      -2.10333131e-02 2.72433572e-02 1.65577640e-03 -4.23983559e-02
      8.12789425e-02 -5.96301071e-03 3.55437063e-02 -3.93390693e-02
      1.90216657e-02 2.31250431e-02 2.47107372e-02 -6.67486861e-02
      -2.47468296e-02 -2.45352928e-02 -3.32029238e-02 -5.91696054e-02
      1.75810251e-02 -1.98402675e-03 -7.78678358e-02 3.17664482e-02
      6.86368048e-02 -3.18629406e-02 -2.92875450e-02 -3.66173647e-02
      -5.68111986e-02 3.29050496e-02 -3.22435722e-02 5.67087419e-02
      7.64373615e-02 -3.32388245e-02 -2.37115622e-02 -3.72767672e-02</_>
    <_>
      -6.79074368e-03 -1.26484465e-02 -1.05323819e-02 -1.58968568e-03
      9.75635946e-02 1.95462685e-02 5.65053336e-02 -5.66631630e-02
      -2.37723701e-02 3.67108434e-02 -8.98547843e-03 8.98701418e-03
      2.86932178e-02 -5.21741658e-02 1.02660045e-01 -1.53832296e-02
      -8.59610550e-03 -4.03793156e-03 5.59931248e-02 4.28042002e-02
      1.23392791e-02 8.64627678e-03 2.66193524e-02 -2.43802462e-02
      3.64343151e-02 -3.36306402e-03 6.73360899e-02 -3.63359191e-02
      8.26259237e-03 -1.99953355e-02 2.49866806e-02 1.97012722e-02
      -1.28977690e-02 6.40384853e-02 6.45774007e-02 -8.72819573e-02
      4.35506888e-02 -2.07914482e-03 -6.26483187e-02 -2.86758412e-03
      5.69029264e-02 -2.86741387e-02 -3.88707616e-03 -2.21641790e-02
      -6.01608343e-02 -4.88425605e-03 3.27639356e-02 9.09835682e-04
      -8.12417939e-02 7.58971134e-03 3.57384756e-02 -4.99694317e-04
      3.02973972e-03 -2.73223203e-02 -5.69804513e-04 -1.14458814e-01
      4.05651070e-02 3.90650444e-02 -7.25432262e-02 7.65080228e-02
      -2.99597206e-03 3.79149094e-02 -2.14272495e-02 -7.73277804e-02
      3.45980632e-03 -6.94051832e-02 2.95850653e-02 -9.42875892e-02
      -3.60891223e-02 -2.35416051e-02 3.77675593e-02 3.42448056e-02
      -1.03342637e-01 -2.50171758e-02 6.34128451e-02 4.41638194e-02
      7.89570734e-02 -1.37912538e-02 7.59422721e-04 2.53850538e-02
      -2.54251398e-02 -2.57867221e-02 -8.02961923e-03 -1.27441943e-01
      -1.70277953e-02 -3.21745910e-02 -1.60866864e-02 3.79358046e-02
      -5.81984147e-02 2.34578401e-02 2.76749227e-02 -5.38734272e-02
      -2.23015808e-02 -3.35100107e-02 5.01227267e-02 -3.17501463e-02
      4.89901602e-02 2.81141903e-02 -6.72729537e-02 4.04516459e-02
      -3.84641290e-02 -3.20697986e-02 4.01546098e-02 3.89410667e-02
      -4.91137914e-02 9.73221939e-03 -3.76038905e-03 6.85866326e-02
      1.50795160e-02 8.05749968e-02 -3.14595574e-03 -6.60977140e-02
      -3.35333794e-02 -6.11465722e-02 -5.85616380e-03 3.03075425e-02
      2.71398155e-03 3.06266081e-02 6.39440268e-02 1.11133754e-01
      3.85704562e-02 4.60400358e-02 3.49103473e-02 -2.56086234e-02
      3.01381736e-03 3.71343084e-02 1.66603271e-02 -8.96025971e-02
      -3.80543806e-02 -5.38925678e-02 6.75752386e-02 6.56527234e-03
      6.31773621e-02 -6.43890025e-03 -7.78219253e-02 4.99450020e-04
      2.41637137e-02 1.02227628e-02 -3.27890478e-02 -7.48391077e-02
      1.79445778e-03 -2.32238472e-02 -1.55348573e-02 5.83993420e-02
      6.59968751e-03 2.47866176e-02 -1.35333361e-02 -2.79794279e-02
      3.11318077e-02 -8.94367024e-02 -5.58188036e-02 5.21264412e-02
      -4.29784320e-02 1.37896677e-02 -2.20126333e-03 -9.81700271e-02
      -3.86381596e-02 7.61792436e-02 3.71147320e-02 8.22201595e-02
      -1.96584836e-02 -3.82811460e-03 -1.98882030e-04 5.37750125e-02
      -5.07833762e-03 1.01271540e-01 -3.31073254e-02 -5.67254126e-02
      2.93958909e-03 5.60492091e-03 1.78925749e-02 3.53586115e-02
      5.85586354e-02 -6.75222799e-02 1.03421295e-02 -4.38119099e-02
      1.71756223e-02 -5.77544458e-02 -5.79746515e-02 -8.52567051e-03
      -1.18361814e-02 5.48553504e-02 1.12344010e-03 3.49086896e-02
      2.58884542e-02 -1.16445841e-02 4.61167395e-02 -1.32438280e-02
      2.39495263e-02 3.04778814e-02 -4.04423103e-02 -4.92272247e-03
      8.06147531e-02 3.27941380e-03 -5.43958172e-02 -5.50005166e-03
      5.47636524e-02 7.53131462e-04 -3.54717299e-02 -2.59131007e-02
      6.75515085e-02 -1.21329859e-01 3.00001297e-02 -1.31283281e-02
      -6.23549037e-02 1.48137324e-02 -1.01659978e-02 -8.43790174e-03
      -6.32128567e-02 4.83936407e-02 -4.96060699e-02 -4.71332408e-02
      -6.79954439e-02 -4.18830998e-02 4.59579825e-02 6.95447961e-05
      8.15655291e-02 -3.83703075e-02 2.17244867e-02 5.09003066e-02
      -3.51204425e-02 -5.80904558e-02 -5.17298840e-02 -5.46044856e-02
      -2.65614577e-02 1.27099156e-02 7.90924206e-02 -4.48603034e-02
      -2.39308961e-02 1.42802950e-02 -1.56337582e-02 6.60880506e-02
      4.56473418e-02 -5.12836874e-03 -1.86044327e-03 7.61647820e-02
      -4.28071071e-04 4.26174328e-03 -9.23474971e-03 -1.45848664e-02
      -4.29657958e-02 -3.01887579e-02 -5.46237864e-02 -7.96451140e-03
      5.64474873e-02 1.31170275e-02 4.46422100e-02 -3.32626104e-02
      -1.55426224e-03 2.09880378e-02 4.60235626e-02 2.27717217e-02
      5.02426736e-02 -6.24264702e-02 -2.89905388e-02 1.39071913e-02
      4.73791966e-03 -1.95253897e-03 -1.68494065e-04 5.51025337e-03
      -6.50913641e-03 2.49303989e-02 -2.40744855e-02 -2.06235945e-02
      -1.49845527e-02 1.22748101e-02 -5.90011366e-02 6.60088286e-02
      1.36117954e-02 -3.56893800e-02 5.66140972e-02 1.05955839e-01
      -3.83421443e-02 -4.82754335e-02 -3.35004255e-02 -3.96103561e-02
      -3.28674614e-02 5.81319630e-03 9.41993389e-03 4.42402475e-02
      1.23903388e-02 -2.81323656e-03 -3.34425451e-04 1.07929884e-02
      -2.39992235e-02 -1.03537112e-01 3.25472131e-02 -6.11897968e-02
      -4.66746055e-02 -4.69889566e-02 -2.29979418e-02 -4.23968099e-02
      1.83453057e-02 1.91694275e-02 -1.10149465e-03 5.45791211e-03
      6.89479103e-03 2.31857039e-02 7.62384478e-03 1.87306068e-04
      6.28668889e-02 -6.43849447e-02 -2.19100136e-02 2.78283041e-02
      2.62763519e-02 -3.34962830e-02 -2.11239718e-02 7.84337074e-02
      -4.59411666e-02 2.10629292e-02 4.79459180e-04 7.23651424e-02
      7.74556119e-03 5.60358949e-02 -2.21908633e-02 6.50850907e-02
      -9.79303382e-03 -3.15164588e-02 -3.73176076e-02 -6.36422262e-02
      9.15459767e-02 -2.93903854e-02 -4.80331369e-02 1.57398488e-02
      -1.85707789e-02 -2.79072374e-02 2.68119504e-03 1.73018640e-03
      -1.10677349e-04 1.81931891e-02 -2.51285080e-02 6.58152699e-02
      4.99197245e-02 -8.67693685e-03 -7.34900460e-02 3.27159204e-02
      -6.40417589e-03 -3.20695341e-03 -3.21910419e-02 8.67579281e-02
      -2.22561155e-02 -2.37680804e-02 -8.93968940e-02 7.21110255e-02
      6.30491748e-02 -1.96104273e-02 -8.29290599e-03 3.26256901e-02
      -2.96423417e-02 -4.26894948e-02 -6.77405521e-02 2.58548595e-02
      3.68029973e-03 5.61766699e-02 -2.18345528e-03 7.12242946e-02
      7.25494996e-02 1.90490652e-02 2.92525403e-02 6.22786693e-02
      3.82980593e-02 -4.46292944e-03 -7.33674318e-02 -5.18858470e-02
      -1.17937431e-01 5.00193350e-02 -1.23821601e-01 -1.89550985e-02
      5.54809012e-02 6.13369867e-02 1.45144537e-02 1.55956475e-02
      -8.39094967e-02 1.05034057e-02 1.37735037e-02 -3.69429551e-02
      2.64978595e-02 -4.22589965e-02 2.20369492e-02 -5.98816946e-03
      -1.28256120e-02 -4.20629140e-03 1.72588136e-02 -9.48215351e-02
      6.29844889e-03 -1.13994600e-02 2.66904547e-03 -1.78273185e-03
      4.58020195e-02 -9.88916587e-03 -5.62576205e-02 6.18264973e-02
      8.81594233e-03 4.48337048e-02 6.49611726e-02 -6.82200193e-02
      -5.06978855e-03 1.03491843e-01 6.93244338e-02 1.91762168e-02
      -1.84847582e-02 7.56206661e-02 6.64533824e-02 -2.14357320e-02
      -7.01893345e-02 -5.55345006e-02 2.66957860e-02 -5.45520596e-02
      -2.12508030e-02 -1.22159300e-02 -1.02386856e-03 -6.52580336e-02
      -2.47994270e-02 -1.30408688e-03 -1.40910242e-02 -4.77825478e-02
      -2.40906347e-02 -9.93488077e-03 4.32080925e-02 -8.08554813e-02
      8.80864915e-03 9.76193510e-03 4.50911000e-03 1.35251194e-01
      1.10870292e-02 1.37736844e-02 -3.02736554e-02 1.99305117e-02
      -3.93450595e-02 -6.05434785e-03 -4.44591194e-02 4.66953442e-02
      2.81497790e-03 -2.15554740e-02 8.39722250e-03 -1.83690283e-02
      -1.23974895e-02 -2.05573160e-02 -6.04382679e-02 -5.96080795e-02
      -4.95132506e-02 -5.93932904e-02 4.79487106e-02 9.22214705e-03
      1.51197137e-02 -8.93789455e-02 7.93117583e-02 -3.24892960e-02
      -5.20120114e-02 4.67524454e-02 -2.24282481e-02 -2.31592972e-02
      -4.96531092e-02 -3.66230421e-02 2.86382008e-02 2.96037216e-02
      4.10883315e-02 4.04191762e-02 -1.51440641e-02 6.79119164e-03
      1.24901012e-02 5.79228066e-02 -4.09565605e-02 1.46363275e-02
      4.25483100e-02 6.91087637e-03 -2.42294632e-02 4.80963336e-03
      6.98243678e-02 -1.21722706e-02 9.67000723e-02 -1.86702572e-02
      -3.48907448e-02 5.93321063e-02 -1.23438556e-02 4.39395979e-02
      6.21492974e-02 3.19582708e-02 1.34133799e-02 5.57860807e-02
      -2.50582956e-02 -8.11091065e-03 5.34487106e-02 -1.28263626e-02
      5.24026304e-02 1.51492488e-02 2.37088911e-02 -4.36760671e-02
      -5.75928250e-03 3.30247395e-02 -3.85175310e-02 3.64942662e-02
      -1.41072348e-02 -2.47198381e-02 6.20316043e-02 1.47317760e-02
      1.46277230e-02 -3.55748795e-02 -8.53953417e-03 6.90650195e-02
      9.63105354e-03 -8.28757212e-02 3.30330133e-02 -3.56519632e-02
      -3.10296435e-02 7.67427403e-03 -1.01457564e-02 -6.81707449e-03
      5.13291045e-04 4.69085909e-02 -3.99019495e-02 -5.74242659e-02</_>
    <_>
      5.02599031e-02 -5.13891503e-02 -7.28617981e-02 4.22980525e-02
      1.71790998e-02 1.82924457e-02 1.72823668e-02 2.97748353e-02
      -6.83527365e-02 -5.23757599e-02 -6.01494201e-02 -5.07250167e-02
      -1.59949642e-02 -1.03250416e-02 3.97843644e-02 3.51736322e-02
      7.02600600e-03 3.61555517e-02 -2.30785087e-02 5.12652053e-03
      1.38036618e-02 -1.45531399e-02 2.93501746e-02 2.08304450e-02
      1.81228574e-02 3.98094356e-02 3.94874811e-02 -4.41424623e-02
      3.49053144e-02 4.82866876e-02 -4.63888003e-03 1.56135950e-03
      -5.61189279e-02 -4.16691452e-02 3.80628631e-02 -4.08943444e-02
      2.97686439e-02 -1.90297123e-02 -5.10857925e-02 -5.09859174e-02
      -4.64021936e-02 5.23680672e-02 -6.23361953e-02 -7.54469931e-02
      -1.05722691e-03 -6.99593201e-02 5.24089392e-03 2.00035758e-02
      -6.36530966e-02 8.39236602e-02 -4.02291818e-03 8.44800286e-03
      1.05861956e-02 -2.67425925e-02 -1.03025734e-01 4.22480376e-03
      -1.05617372e-02 1.04654925e-02 4.08172496e-02 1.13111705e-01
      4.72022481e-02 1.32601922e-02 1.35275954e-02 1.27246426e-02
      -4.67127375e-02 2.90690381e-02 5.61511666e-02 -1.49239730e-02
      7.98654482e-02 -5.31213060e-02 -1.19408622e-01 1.88954547e-02
      1.55978892e-02 3.51983681e-02 -1.10168997e-02 1.94445550e-02
      4.30666842e-03 -7.67461061e-02 7.01264739e-02 5.10365255e-02
      3.74188982e-02 -7.12286010e-02 5.01156114e-02 3.36497948e-02
      2.86823399e-02 -4.85859811e-02 1.59381994e-03 8.35061148e-02
      -2.95278206e-02 -2.14587953e-02 8.75785854e-03 -4.44924831e-02
      6.76060468e-02 -3.64517258e-03 2.31328737e-02 -1.86397675e-02
      -1.37889003e-02 -1.12439975e-01 -3.17727514e-02 1.83023419e-02
      3.11856903e-02 -3.84363718e-02 1.95583813e-02 8.29890594e-02
      4.57280688e-02 7.74211576e-03 -7.58315250e-02 -7.78634101e-02
      2.46646106e-02 -1.13310993e-01 3.50810625e-02 6.99677914e-02
      -2.39404067e-02 -7.04584122e-02 6.88933115e-03 -5.69946095e-02
      -8.37617461e-03 -7.28478283e-02 -1.07873818e-02 4.61990647e-02
      4.54525128e-02 3.24512981e-02 -1.16986241e-02 -1.85484532e-02
      1.58007182e-02 -2.39609517e-02 -3.95341069e-02 -3.42233069e-02
      1.97053310e-02 3.70016545e-02 1.25320274e-02 1.60802603e-02
      3.13327946e-02 -7.70848617e-02 -3.87666896e-02 -1.90774146e-02
      1.65816322e-02 -1.96655970e-02 7.18383566e-02 7.27237239e-02
      1.94455069e-02 4.14324068e-02 -2.40141116e-02 1.32645033e-02
      2.56045219e-02 -1.39676249e-02 -5.03173880e-02 -4.48454395e-02
      -1.23318657e-02 2.67996173e-02 -4.53837104e-02 -2.74649002e-02
      1.92850567e-02 -3.74585688e-02 2.19874755e-02 -6.39361963e-02
      2.33013481e-02 8.84811655e-02 -4.03735377e-02 -3.02948356e-02
      4.82050106e-02 -4.37600911e-02 2.80349841e-03 -3.24802548e-02
      7.53131583e-02 8.60423744e-02 -4.32451963e-02 -1.62471179e-03
      -1.26215005e-02 -3.62854414e-02 2.57842392e-02 1.79465543e-02
      3.86899225e-02 -3.12630460e-02 2.78476998e-02 -5.15007079e-02
      -2.07651909e-02 -4.07295078e-02 -3.97264548e-02 3.95062417e-02
      -5.12352809e-02 6.58608787e-03 -1.40937539e-02 -6.77950680e-02
      -7.68093858e-03 1.69014968e-02 -3.37192267e-02 -4.71610464e-02
      -5.68705760e-02 -1.92829818e-02 -6.55904859e-02 -1.91393830e-02
      1.03992596e-01 -4.24320027e-02 1.78025216e-02 4.46067862e-02
      1.59562342e-02 6.33391514e-02 -1.97845534e-03 1.80908833e-02
      6.47015462e-04 2.85778977e-02 -1.89466029e-02 -4.36386205e-02
      -6.20196247e-03 5.07959770e-03 -2.11885665e-02 2.01143082e-02
      -5.85551597e-02 3.74023020e-02 -1.09763620e-02 -1.25490120e-02
      -3.73078417e-03 2.95152813e-02 -4.88800602e-03 8.91634300e-02
      -2.05772351e-02 4.26636077e-02 -2.43839212e-02 1.07729984e-02
      -3.94548737e-02 -2.13280469e-02 -5.71311936e-02 -1.57746691e-02
      3.30952741e-02 1.78402103e-02 -8.26041866e-03 -4.33674715e-02
      -2.48782560e-02 2.89211585e-03 6.80146143e-02 4.32739742e-02
      -5.63395433e-02 -1.07186578e-01 1.74911786e-02 1.33242812e-02
      1.36441633e-03 -2.19841786e-02 4.35834564e-03 -9.28676575e-02
      3.58872153e-02 -5.73188625e-02 -1.24722952e-02 5.77303814e-03
      6.46232218e-02 8.53162035e-02 2.43726540e-02 6.31010905e-02
      -3.22279595e-02 -3.44696790e-02 -1.44335311e-02 1.66133456e-02
      4.26396262e-03 -1.32628763e-03 1.75439306e-02 -1.02126144e-01
      -4.45864461e-02 1.89623646e-02 1.80342235e-02 1.34487776e-02
      6.01162650e-02 -5.71557693e-02 3.82694863e-02 8.50346964e-03
      2.65712496e-02 -1.23844659e-02 -1.75156519e-02 8.49530101e-03
      -9.88215953e-03 -2.05011405e-02 -1.78675540e-02 1.17235677e-03
      5.12225591e-02 -1.95762496e-02 -2.60859746e-02 3.16031370e-03
      2.03697011e-03 1.80498906e-03 -8.11134055e-02 -3.46876532e-02
      -2.34777909e-02 -1.65380202e-02 -3.48408967e-02 1.77170914e-02
      -7.67523870e-02 -5.03455102e-02 2.63785738e-02 -4.93416786e-02
      -3.75442430e-02 -3.33200209e-02 -7.47293457e-02 -8.67312178e-02
      -1.29370596e-02 -2.49695126e-03 -1.22997593e-02 6.25064448e-02
      -6.83049113e-02 -2.12536771e-02 -3.57545651e-02 3.44100222e-02
      1.17203996e-01 -6.52921200e-02 1.26217484e-01 7.77713675e-03
      -2.67949570e-02 5.21279080e-03 -2.01333109e-02 -2.87292916e-02
      -3.09852306e-02 -8.32800753e-03 -3.91138718e-02 -5.60726447e-04
      -2.55697127e-03 -3.61396931e-02 2.57114042e-03 3.11600100e-02
      -1.34597600e-01 2.82196328e-02 -6.33574054e-02 -7.85824656e-03
      -9.16563033e-04 -1.69837959e-02 -3.13463248e-02 3.39856893e-02
      -3.33039947e-02 1.50827710e-02 -3.83606292e-02 2.29671341e-03
      -3.76992077e-02 3.57687250e-02 5.70478700e-02 -1.11865764e-02
      -6.99505955e-02 2.14906838e-02 -2.70868018e-02 -6.16186410e-02
      3.64028290e-02 7.34166289e-03 -1.71830400e-03 3.73018906e-02
      6.80426061e-02 -3.85852680e-02 2.65668556e-02 -2.47644284e-03
      -7.55466986e-03 -4.68819588e-02 1.30620720e-02 3.30903269e-02
      7.99481175e-04 -2.98686326e-02 -4.10013944e-02 -2.45316476e-02
      6.13154434e-02 -9.50573459e-02 -4.84676957e-02 6.97692111e-02
      3.07421088e-02 -3.13005708e-02 -7.24564642e-02 -3.88883869e-03
      -1.35946674e-02 5.07519618e-02 -6.93302974e-02 -3.32624614e-02
      -3.67504247e-02 4.09966856e-02 3.94409820e-02 -3.89057137e-02
      -3.27563398e-02 1.06763970e-02 -1.42833348e-02 8.49218145e-02
      4.11721766e-02 6.62243366e-02 -8.32624733e-03 1.94397906e-03
      -3.72168124e-02 -2.43729241e-02 3.53846845e-04 1.56093994e-02
      -5.78099228e-02 9.77024436e-03 -1.42695964e-03 1.49524095e-03
      6.90377504e-02 -1.71811990e-02 5.85444421e-02 -2.30583418e-02
      -4.54636365e-02 1.95344817e-02 3.14060785e-02 5.63011989e-02
      -7.25918487e-02 -1.55784031e-02 -5.19711850e-03 4.31349650e-02
      3.01745925e-02 7.67483190e-02 1.03817740e-02 -6.46483600e-02
      -9.18689370e-02 3.39453481e-02 -4.30699997e-02 5.16716242e-02
      -9.77323800e-02 -3.55421193e-02 -1.86258908e-02 -6.92526549e-02
      -2.70667262e-02 2.00048555e-02 2.14836970e-02 -3.74297239e-02
      -2.73662824e-02 -1.12346075e-02 -7.94429407e-02 -2.04797741e-02
      -1.09408246e-02 -1.34389801e-02 5.73068112e-02 -5.26459552e-02
      -5.54388901e-03 -1.86797716e-02 -3.01891379e-02 -6.80518290e-03
      3.67072523e-02 3.60283665e-02 2.38962173e-02 2.81276219e-02
      1.57742053e-02 2.38904413e-02 -2.05627512e-02 -5.39869666e-02
      1.53961061e-02 -2.91059930e-02 -5.87201118e-02 -3.16322483e-02
      6.10072613e-02 7.83628225e-02 3.28416773e-03 1.81398876e-02
      -8.73130485e-02 -7.54679553e-03 -5.09840734e-02 2.15316154e-02
      2.45490745e-02 6.85806274e-02 -8.11600126e-03 3.29572633e-02
      4.57476676e-02 -7.22961053e-02 3.83912213e-02 -2.90677417e-02
      7.79761523e-02 -6.46942034e-02 5.38334474e-02 -4.53857742e-02
      3.46620157e-02 6.43659681e-02 2.86886673e-02 8.92373845e-02
      2.09365152e-02 4.37879898e-02 -2.82192486e-04 1.95185374e-02
      6.06287196e-02 -3.93007044e-03 2.57321913e-02 -7.56503716e-02
      3.28496210e-02 -3.91645245e-02 -1.98152531e-02 1.31024132e-02
      -2.18607206e-02 2.21766792e-02 -4.69810627e-02 7.30410730e-03
      2.72699725e-02 -8.52159709e-02 -2.43001338e-02 2.14862283e-02
      1.31305996e-02 5.83137572e-03 9.00319219e-02 2.49448866e-02
      5.30376174e-02 8.17575455e-02 -8.86913538e-02 -6.18593879e-02
      5.00997566e-02 1.14535615e-02 -3.03823370e-02 -1.78197697e-02
      -2.33138055e-02 1.28439469e-02 1.31879017e-01 -2.66602030e-03
      4.47922945e-02 -2.60046478e-02 8.25660676e-03 -1.47523405e-02
      7.72499759e-03 -4.20003720e-02 -1.25961555e-02 -1.37741482e-02
      1.30117079e-02 2.37368923e-02 7.45714679e-02 8.60360712e-02
      8.38749204e-03 5.82232848e-02 2.51157936e-02 -1.05097473e-01</_>
    <_>
      -1.70784816e-02 4.64828461e-02 -4.44383174e-03 -2.85308696e-02
      -2.16392763e-02 -4.65261377e-02 2.65483279e-02 1.08351380e-01
      4.37089093e-02 -4.22797091e-02 -6.55050129e-02 -1.78956017e-02
      1.18679911e-01 -3.92693728e-02 -7.42116421e-02 -3.02389041e-02
      8.19091219e-03 1.48225510e-02 -2.46837549e-02 -3.14672925e-02
      -1.84929762e-02 2.29353607e-02 1.81618407e-02 -1.85325760e-02
      6.31109998e-02 -2.37635169e-02 2.36348286e-02 -6.99889287e-03
      5.21555543e-02 6.97489008e-02 1.14450514e-01 1.76817756e-02
      3.31077576e-02 -5.45813702e-02 7.29568750e-02 8.67890380e-03
      -6.20884523e-02 -2.68046558e-02 -6.08965419e-02 -2.22969558e-02
      9.14210267e-03 1.10934461e-02 1.11088544e-01 2.25477833e-02
      -2.82309111e-02 1.82405263e-02 -6.66121393e-02 4.09949459e-02
      -3.11103780e-02 -9.27249715e-02 -9.14692692e-03 3.52634862e-02
      7.01702312e-02 8.76781531e-03 -1.84102319e-02 2.70659532e-02
      2.84445342e-02 3.31931710e-02 -3.63912210e-02 -6.42760377e-03
      1.90850943e-02 4.58075805e-03 2.32322514e-02 -4.92131244e-03
      -4.09910567e-02 -3.38791646e-02 -7.18327761e-02 3.40693817e-02
      3.93349044e-02 4.43860702e-02 1.37050943e-02 7.52998702e-03
      -3.57678980e-02 -8.30926299e-02 5.79064339e-02 -4.71712388e-02
      -4.79516722e-02 2.29929628e-05 -3.44278552e-02 2.87458324e-03
      -2.47504022e-02 -6.25325143e-02 1.08813401e-02 -4.61898632e-02
      -4.87557277e-02 -2.83982866e-02 -1.97556280e-02 1.64610241e-02
      6.73250481e-02 2.82484610e-02 1.10845389e-02 -3.19046304e-02
      5.06540798e-02 -3.95921357e-02 2.96490695e-02 -3.65343504e-02
      3.65373469e-03 -3.57660167e-02 -3.58998775e-02 3.11290789e-02
      1.48846712e-02 1.02038088e-03 2.33609695e-02 7.39003420e-02
      -4.93033882e-03 6.79517761e-02 3.49848978e-02 3.38189863e-02
      1.09182999e-01 1.23616435e-01 -2.71353088e-02 8.34923834e-02
      2.52846722e-03 -8.60118270e-02 -2.18831338e-02 -4.24967967e-02
      -8.45780298e-02 3.60763557e-02 -2.96907742e-02 -1.54797817e-02
      3.14278193e-02 -2.76863277e-02 -6.00482523e-02 -2.74020899e-02
      -4.57133539e-02 6.73185661e-02 2.58343294e-02 1.91062759e-03
      -6.34501828e-03 2.61419099e-02 4.01116498e-02 1.75233986e-02
      1.22132357e-02 1.19464658e-02 6.59951642e-02 6.17412552e-02
      2.16016043e-02 -1.52195888e-02 -9.95368417e-03 -3.58665027e-02
      -7.13197663e-02 -4.82947230e-02 -3.68742086e-02 -2.02378500e-02
      2.23689340e-02 -3.32951592e-03 8.96554962e-02 -4.80220728e-02
      6.35268772e-03 -1.86945256e-02 3.85057665e-02 -6.72278255e-02
      5.35427108e-02 7.42946193e-02 -2.66634598e-02 -1.55283548e-02
      -4.37772684e-02 -5.28339446e-02 3.51817049e-02 1.48869883e-02
      3.17657255e-02 2.03900095e-02 -2.33197827e-02 -1.83997639e-02
      4.46195826e-02 -8.33879411e-03 -8.82852415e-04 6.10692333e-03
      -3.55858356e-02 -4.60513569e-02 2.26824936e-02 -2.33116634e-02
      -2.35362584e-03 6.58843070e-02 -1.38503173e-02 -5.98230353e-03
      1.11545436e-02 -1.85443163e-02 -2.79473048e-02 -6.80929869e-02
      -5.85078299e-02 5.58869764e-02 -1.00918952e-03 -2.89342068e-02
      1.18540123e-01 8.93617123e-02 5.82530238e-02 -5.09619489e-02
      -1.00566046e-02 -3.60016935e-02 2.27937661e-02 -2.05693357e-02
      -6.91728666e-02 -8.34316462e-02 2.84730196e-02 -4.63001058e-02
      -3.49128712e-03 -6.86542392e-02 6.45416155e-02 -2.54787542e-02
      9.13258409e-04 3.42840031e-02 -2.59134956e-02 -5.41114882e-02
      -1.34099070e-02 -2.62675546e-02 -1.26548810e-02 -5.66630848e-02
      -2.28569955e-02 -7.16284243e-03 -1.97378807e-02 5.22464886e-02
      2.15698536e-02 -9.27889894e-04 3.49134170e-02 7.25726858e-02
      3.89608517e-02 -3.48708534e-04 7.57798105e-02 -3.94916944e-02
      -2.67396984e-03 -3.10276542e-02 -1.06995650e-01 4.26722914e-02
      -4.45480086e-02 -5.03527522e-02 -8.05998128e-03 -2.59764586e-02
      1.95738617e-02 -7.06751570e-02 -1.27804780e-03 -4.31334302e-02
      8.89098197e-02 2.05980595e-02 -1.08393691e-02 2.70500742e-02
      -2.68143229e-02 3.08350530e-02 -5.46283601e-03 -4.14644815e-02
      1.41609339e-02 -4.68204096e-02 -1.34953682e-03 -8.67128670e-02
      4.96174544e-02 1.09528517e-02 3.90958004e-02 6.77983370e-03
      -3.24487872e-02 -4.09120088e-03 3.71899828e-02 -5.27851619e-02
      -6.68689783e-04 2.63980441e-02 -2.60399887e-03 3.16695981e-02
      1.16481319e-01 -2.80032270e-02 5.97243160e-02 -3.42120533e-04
      9.95854009e-03 -4.84370627e-02 7.01030670e-03 -5.45490393e-03
      7.94851184e-02 -8.35300982e-02 -9.20680538e-02 1.12922408e-01
      -6.13969751e-03 4.70229276e-02 6.00544885e-02 -7.88788497e-03
      2.82346848e-02 -3.53293982e-03 3.97153720e-02 2.85253301e-03
      9.51860249e-02 5.15516102e-02 -2.59127058e-02 -2.43552448e-03
      4.51145358e-02 -7.08948374e-02 7.18850419e-02 -2.72543598e-02
      -4.35653329e-02 -8.01251531e-02 -1.15672583e-02 -1.04045598e-02
      -6.05509952e-02 -1.36260884e-02 6.86550420e-03 -2.26495881e-02
      -1.15933686e-01 -3.52954902e-02 4.88335267e-03 2.77020987e-02
      3.40572000e-02 -4.70201261e-02 -2.52973512e-02 7.73296356e-02
      4.19618934e-02 -1.05446177e-02 4.15865928e-02 -8.89294073e-02
      3.56243216e-02 1.14389099e-02 6.12481944e-02 -4.74514402e-02
      -1.97201152e-03 4.86244401e-03 -2.19392497e-02 -2.64719184e-02
      -6.96418285e-02 3.49967070e-02 -1.53662814e-02 -1.94060318e-02
      -1.06720589e-02 -1.82977561e-02 -1.46748759e-02 -1.03323929e-01
      -4.92672175e-02 -1.29499272e-01 2.76469570e-02 4.11595255e-02
      -1.01888485e-01 3.79434079e-02 -1.42676393e-02 -2.18202360e-02
      4.40043621e-02 -7.19555095e-02 3.47930640e-02 1.76147651e-02
      6.09384328e-02 -4.45871651e-02 2.24363133e-02 4.07507010e-02
      4.29775789e-02 4.48250361e-02 2.97321919e-02 -3.21002044e-02
      -4.92182560e-02 -2.20738743e-02 -5.17448224e-02 9.06031765e-03
      5.90512762e-03 -2.16943212e-02 4.73410971e-02 3.25760432e-02
      2.93083936e-02 4.50483244e-03 5.11830263e-02 4.77000102e-02
      8.57768729e-02 -7.85201974e-03 4.85434663e-03 -3.97643708e-02
      -3.33943330e-02 6.20168857e-02 5.17204478e-02 -1.99219063e-02
      -1.99918263e-02 -8.87720287e-03 -3.91760617e-02 -2.86310948e-02
      4.55251224e-02 5.63879721e-02 -1.28042614e-02 -2.81274458e-03
      2.70763170e-02 5.31023107e-02 -1.24271726e-03 -6.77312240e-02
      -1.50374100e-02 1.22503731e-02 2.47845389e-02 -2.55789757e-02
      3.03793680e-02 1.17904332e-03 1.61351226e-02 6.13617748e-02
      3.48215811e-02 5.00196181e-02 1.03908721e-02 -4.17241864e-02
      -6.13927059e-02 6.29105419e-02 1.42799150e-02 -3.11190393e-02
      2.02311575e-02 -9.92193259e-03 1.01419883e-02 -4.89548594e-02
      -1.02486752e-01 5.79122528e-02 6.03626110e-02 -4.71894890e-02
      5.92519641e-02 8.38286430e-02 2.13373210e-02 -3.03481799e-02
      4.79665399e-02 7.68686552e-03 3.65170538e-02 3.21103744e-02
      -3.29646282e-02 1.27783790e-03 -3.55109349e-02 3.92501093e-02
      -5.15448935e-02 -2.09092628e-02 3.00394073e-02 6.26660138e-02
      -3.96354124e-02 5.45442291e-03 -1.44114532e-02 -5.47725633e-02
      2.55923625e-03 2.32115462e-02 3.36503349e-02 4.51348610e-02
      7.20132003e-03 6.23037964e-02 4.40022862e-03 3.02875210e-02
      3.86080965e-02 -1.20959869e-02 -3.65552790e-02 -4.73741256e-03
      -1.73816495e-02 2.69853696e-02 -8.15103650e-02 -1.29564106e-02
      -4.21435758e-02 5.30938208e-02 -3.02194082e-03 2.91413832e-02
      -5.76328370e-04 5.83938621e-02 1.18716536e-02 -1.41491247e-02
      1.09214913e-02 -5.80570996e-02 5.15388586e-02 -6.56213537e-02
      5.28626963e-02 -3.03578228e-02 -6.18553646e-02 -5.11545874e-02
      3.43054207e-03 5.47147170e-02 -5.49299130e-03 -2.88731474e-02
      -5.56538347e-04 -2.77334340e-02 1.76421221e-04 -3.43558099e-03
      -5.64188957e-02 -1.14945939e-03 -3.54551673e-02 -5.52596524e-04
      -3.65751460e-02 1.90693568e-02 7.78484577e-03 1.27998386e-02
      5.79422191e-02 1.07622989e-01 1.23969419e-02 -8.15701708e-02
      -1.02363080e-02 -4.34485869e-03 2.97465660e-02 1.81272738e-02
      -2.52745803e-02 -1.12950075e-02 -1.50511479e-02 4.93433550e-02
      -5.56439087e-02 1.49607742e-02 3.12046241e-02 7.19360134e-04
      -3.03883315e-03 -7.16728568e-02 1.36563759e-02 -9.36014485e-03
      -1.72318928e-02 -1.24768848e-02 -1.62843037e-02 4.46385033e-02
      -2.55614482e-02 -4.46702763e-02 9.31188557e-03 -1.50691494e-02
      -1.03164054e-02 -4.10132669e-02 3.93908434e-02 2.59937961e-02
      -6.83604479e-02 1.27598513e-02 3.69552127e-03 1.04980972e-02
      -4.89315726e-02 -1.40976533e-01 3.13642099e-02 -3.03547108e-03
      -5.13077676e-02 5.34981266e-02 3.85938101e-02 -3.58155556e-02
      5.77228330e-02 -2.18042731e-02 -1.16195288e-02 -6.84916750e-02</_>
    <_>
      -4.83882464e-02 2.91910991e-02 1.06995637e-02 1.03331346e-03
      9.90715344e-03 2.20142901e-02 -1.02445986e-02 -3.12582254e-02
      -7.26886466e-03 -1.06371287e-02 1.02630220e-02 1.77436229e-02
      3.65581810e-02 -4.02391423e-03 1.55485449e-02 4.35589366e-02
      9.60166454e-02 5.76651320e-02 -6.10572882e-02 5.01086041e-02
      -2.28508841e-02 4.50930782e-02 3.73783596e-02 -3.45900021e-02
      1.67615842e-02 -3.90936360e-02 9.73865949e-03 4.61305529e-02
      5.84129654e-02 4.05338891e-02 -9.87925380e-02 1.45388320e-02
      -6.52252883e-02 1.87327117e-02 -3.66685390e-02 3.06774024e-02
      -1.08287130e-02 -6.45682961e-02 4.55665169e-03 3.47920433e-02
      1.84749272e-02 6.42292798e-02 4.77278493e-02 -7.11657666e-03
      -1.59955509e-02 3.90673280e-02 3.61185819e-02 -1.65112037e-02
      -4.07047234e-02 3.96015458e-02 -9.81097016e-03 -2.47828895e-03
      4.71663214e-02 2.65094023e-02 -1.67212225e-02 -4.14463505e-02
      -3.19307949e-03 -5.26031666e-03 -1.50861999e-03 2.61010733e-02
      7.54478350e-02 4.15625907e-02 -2.57463679e-02 -3.11184842e-02
      6.18838053e-03 5.49158081e-02 -3.88492718e-02 4.35732827e-02
      -1.01492712e-02 2.34635081e-02 -5.87848714e-03 2.32048053e-02
      2.91727558e-02 -1.70169938e-02 3.68149653e-02 -6.90003298e-03
      -2.76050437e-02 8.31839815e-02 -6.75256327e-02 -5.82263805e-02
      -2.63769850e-02 -9.63327736e-02 -2.74482220e-02 -6.90991282e-02
      4.42395210e-02 -7.41245300e-02 -7.96196833e-02 -4.95436136e-03
      -7.34558851e-02 5.67531027e-02 8.50992650e-02 -7.83789996e-03
      1.80944875e-02 -3.59948017e-02 1.54619757e-03 -4.44303975e-02
      3.21655609e-02 -9.42801684e-03 -1.59871131e-02 3.08518466e-02
      -4.27102931e-02 2.17354652e-02 -2.06537936e-02 1.55294919e-02
      -2.19004918e-02 1.74223855e-02 2.15451531e-02 6.85483124e-03
      -5.14333658e-02 7.94136971e-02 -4.49016280e-02 -5.63038103e-02
      5.23024537e-02 3.63488086e-02 -4.51913439e-02 -3.18706594e-02
      -7.74118304e-02 3.59191857e-02 2.14350112e-02 -4.74701598e-02
      5.61738797e-02 2.84259971e-02 2.38506235e-02 -5.02664745e-02
      4.76330332e-02 -3.00507061e-02 1.25237219e-02 2.23100651e-02
      -3.84941101e-02 -1.43763190e-02 -4.82654832e-02 -7.30124442e-03
      -4.72382642e-02 -9.70825646e-03 -6.24478124e-02 -3.01472191e-03
      3.02392654e-02 -4.81130667e-02 -3.70147005e-02 4.84018726e-03
      2.67584855e-03 -5.87306581e-02 -2.85268705e-02 7.94225559e-03
      -4.19628434e-02 -2.55837012e-02 1.26722164e-03 -9.80711430e-02
      -3.01094782e-02 -3.58215235e-02 9.97035531e-04 -6.66630492e-02
      -8.08573812e-02 6.64704293e-02 1.12800375e-01 -4.53165034e-03
      -2.51400955e-02 4.55267467e-02 -1.36240963e-02 5.53225838e-02
      6.51496872e-02 4.13873345e-02 -4.37810533e-02 2.21941378e-02
      6.74356595e-02 1.18576512e-02 5.71167469e-02 -8.52568373e-02
      2.84804939e-03 -4.76358794e-02 -1.07732393e-01 6.86465055e-02
      1.55385723e-02 -2.60727927e-02 7.17708021e-02 -4.72228862e-02
      1.17007360e-01 -1.22913613e-03 -6.09763116e-02 -3.57319899e-02
      -2.34027877e-02 9.03105177e-03 -5.87929823e-02 -2.22461186e-02
      -3.58909406e-02 1.44521398e-02 -5.47569580e-05 -6.13059700e-02
      -2.89288666e-02 2.96056252e-02 -3.22213210e-02 -2.10550316e-02
      4.00282554e-02 2.61213128e-02 -3.10103539e-02 -9.50785819e-03
      -7.86141232e-02 1.18243201e-02 -1.26760302e-03 4.28468082e-03
      9.79453046e-03 1.06676836e-02 -3.20217535e-02 -4.30892259e-02
      -4.03797626e-02 -2.92812362e-02 -7.34310746e-02 -8.50934535e-02
      -3.39587629e-02 5.56173213e-02 3.49748023e-02 8.01600236e-03
      1.14370855e-02 -3.40921059e-02 1.77331232e-02 1.46340607e-02
      -1.21680172e-02 -1.57470312e-02 -5.70981950e-02 -6.19342690e-03
      4.80393134e-02 -5.64975552e-02 -7.05516385e-03 -7.45339990e-02
      1.27181066e-02 -1.00296794e-03 4.68139052e-02 2.96301097e-02
      1.45873278e-02 6.73843771e-02 -4.78983205e-03 -1.50310798e-02
      1.28804250e-02 -4.48801480e-02 4.01987880e-02 1.94165967e-02
      -1.64815448e-02 -7.41786584e-02 -4.34809178e-03 1.11360572e-01
      1.02122435e-02 -3.97777446e-02 -3.53121795e-02 2.66483473e-03
      1.27754733e-02 3.36956680e-02 -5.28305806e-02 3.72680612e-02
      1.15414718e-02 -3.08002438e-02 1.75886806e-02 8.01159292e-02
      -4.50414456e-02 -7.72327408e-02 2.81480718e-02 3.83444540e-02
      2.60088760e-02 -2.40731165e-02 -1.64121520e-02 4.95203622e-02
      -8.02895799e-02 -3.47447433e-02 -5.77285625e-02 1.51097700e-02
      -1.13774864e-02 -1.14396457e-02 -1.24478757e-01 -4.28966954e-02
      -5.10503165e-02 1.11140683e-02 -2.76500685e-03 -3.36977318e-02
      5.66973686e-02 9.21751652e-03 6.41650409e-02 5.60509898e-02
      -2.96569299e-02 2.57684700e-02 -7.65316039e-02 -2.28409078e-02
      6.11780770e-02 3.07320990e-02 -9.50248633e-03 4.39406149e-02
      -6.34498522e-02 -7.08335191e-02 1.51134096e-03 -4.67205746e-03
      -5.48709147e-02 -2.10655648e-02 -8.31299573e-02 -3.66737805e-02
      -7.04599544e-02 -5.17063588e-02 3.73815000e-02 -4.33330052e-02
      4.86125983e-03 4.68423143e-02 -8.35166350e-02 -1.09825945e-02
      6.97707012e-02 3.23444209e-03 9.25714523e-03 -2.61920635e-02
      2.53302846e-02 8.38965364e-03 6.69216961e-02 -2.20942944e-02
      -7.25639518e-03 -6.20193109e-02 1.13210920e-02 -2.21248111e-03
      -5.50971515e-02 1.08466223e-02 8.08169469e-02 -3.31581011e-02
      -5.42216450e-02 2.32178513e-02 -1.52160795e-02 1.01763131e-02
      2.66792253e-03 -5.42540923e-02 3.92054114e-03 7.05259591e-02
      -8.53978842e-03 2.87207142e-02 -3.25157270e-02 4.35357131e-02
      -1.05797537e-02 6.05772017e-04 -4.35874499e-02 -8.61080810e-02
      1.79056451e-02 4.05711774e-03 1.96643500e-03 4.22828645e-02
      3.44312228e-02 -6.90465346e-02 4.85019162e-02 8.69613215e-02
      -6.40337318e-02 3.14993449e-02 3.02054314e-03 1.61946360e-02
      1.00905463e-01 2.09592581e-02 2.31804848e-02 1.64289009e-02
      -1.69511121e-02 1.76805593e-02 2.98437681e-02 4.95758243e-02
      3.53013426e-02 6.83903042e-03 -1.90808214e-02 -1.34889968e-02
      -1.40978489e-03 -9.98884905e-03 3.25717730e-03 4.83050868e-02
      2.74537075e-02 -8.40652436e-02 -1.08968519e-01 -2.66947709e-02
      -2.33947076e-02 7.88294896e-02 1.98633410e-03 -1.27155920e-02
      -3.34258415e-02 -2.23277658e-02 -7.77893215e-02 -2.34906301e-02
      4.59271818e-02 3.74732614e-02 6.15543500e-02 5.15340939e-02
      1.36335520e-02 -5.20866476e-02 -6.84904382e-02 -2.89587956e-02
      2.32549477e-02 -3.21002491e-02 -9.49684624e-03 -7.75008649e-02
      -4.11158204e-02 5.39734177e-02 -5.41272573e-02 4.32065092e-02
      7.00730458e-02 -1.43522378e-02 2.38962546e-02 7.03285187e-02
      -7.89889097e-02 2.53437329e-02 -3.61997336e-02 1.15237413e-02
      6.65366650e-02 -2.71098427e-02 1.29577164e-02 3.55946794e-02
      -2.56386474e-02 8.38779658e-02 7.05587724e-03 -6.18232526e-02
      -3.88106331e-02 -7.65189528e-02 7.06104620e-04 1.10628447e-02
      3.66360657e-02 5.29940194e-03 -2.27579265e-03 1.21956710e-02
      5.01132831e-02 4.65227440e-02 -2.11506542e-02 -6.12274446e-02
      -4.19614129e-02 -1.10226572e-02 9.58179533e-02 -8.43027830e-02
      -2.38157529e-02 5.06622195e-02 -5.66525199e-02 -1.60118360e-02
      8.15493837e-02 -6.41364418e-03 1.89069118e-02 -7.44989440e-02
      -2.59524733e-02 9.94027629e-02 -5.09956256e-02 7.68925156e-03
      -2.32076123e-02 -3.35669108e-02 1.84112564e-02 -1.70550440e-02
      7.76840821e-02 -9.05655045e-03 1.02439327e-02 -8.62368420e-02
      -2.78821029e-03 4.13483717e-02 -1.21502522e-02 -6.21411465e-02
      -5.13609350e-02 -2.38198042e-02 4.18555783e-03 -3.95046407e-03
      -1.46819581e-03 -9.50553548e-03 8.41599889e-04 -6.61973506e-02
      6.57574739e-04 -4.32773605e-02 2.18818001e-02 -6.36698678e-03
      1.03143126e-01 7.42372051e-02 1.65708642e-03 1.50623322e-02
      7.64076086e-03 -2.77079940e-02 -4.97465990e-02 -2.39344165e-02
      9.34946015e-02 8.53112936e-02 -5.79569431e-04 -1.18481047e-01
      2.24309713e-02 -1.43527500e-02 -7.03931507e-03 -8.07851460e-03
      -1.17719965e-02 -6.40414131e-04 -3.13738324e-02 -2.73780916e-02
      6.65842891e-02 1.15091158e-02 -2.31285319e-02 -3.43491253e-03
      1.03136525e-01 2.85817962e-02 -1.23983063e-02 -2.49979049e-02
      -2.11551860e-02 4.82816026e-02 2.45758574e-02 -2.59433519e-02
      -4.78448905e-02 7.60940388e-02 9.40544438e-03 -1.39012579e-02
      -3.04915737e-02 -2.13907640e-02 4.39708456e-02 -3.03008556e-02
      -5.30613139e-02 3.60559598e-02 1.25459274e-02 5.09844460e-02
      -1.04461968e-01 -3.54533046e-02 5.81750087e-02 1.15198893e-02
      1.21874427e-02 1.87492911e-02 8.62243846e-02 2.70234141e-02
      4.83241864e-02 -9.86078568e-03 -2.94485763e-02 -7.99231790e-03</_>
    <_>
      -1.91400480e-02 1.65453609e-02 -4.23152149e-02 4.77671213e-02
      4.27237526e-02 2.28732340e-02 -7.87289161e-03 6.61005527e-02
      -6.72725514e-02 7.63459876e-02 -7.40959914e-03 5.23605570e-02
      -1.78428609e-02 -4.93337680e-03 1.90957822e-02 -1.83265600e-02
      5.94617007e-03 5.23572117e-02 -4.04790938e-02 3.36783119e-02
      -6.74774777e-03 6.69292659e-02 9.76994447e-03 1.80437583e-02
      -7.87756033e-03 -3.97370644e-02 4.52755839e-02 8.80504102e-02
      8.03749561e-02 7.02263936e-02 -2.67176749e-03 -6.65869862e-02
      -3.68274935e-02 -3.92846502e-02 -6.95646042e-03 -2.58243196e-02
      -2.34661680e-02 2.53875963e-02 2.61678714e-02 2.03193427e-04
      -5.61540667e-03 1.00438640e-01 2.54428461e-02 6.35423884e-02
      1.53960055e-02 1.26337316e-02 3.75283323e-03 -3.13845724e-02
      -1.44338626e-02 3.32913697e-02 -6.95129037e-02 -1.69393029e-02
      1.12955980e-01 -1.97693403e-03 -5.04635684e-02 5.43285720e-02
      -1.00972189e-03 2.50910651e-02 -1.92150194e-02 -1.53435078e-02
      7.48305172e-02 2.65450925e-02 -1.79734882e-02 -6.70817122e-02
      2.90667377e-02 7.39570521e-03 -2.97328532e-02 2.19085906e-02
      1.47676459e-02 5.57126664e-02 -2.67304797e-02 7.42469355e-02
      -3.92031334e-02 -5.31937219e-02 4.31542583e-02 1.60491711e-03
      -6.82169795e-02 8.44637305e-03 -1.97296473e-03 -1.93441864e-02
      -1.83538627e-02 -4.30930592e-02 -5.98742999e-03 1.06786126e-02
      -1.25609348e-02 -5.51824719e-02 -7.80459717e-02 3.36056538e-02
      -4.14735042e-02 3.29791266e-03 6.59434944e-02 -2.62481682e-02
      -5.79229416e-03 -3.11669912e-02 4.86777723e-03 -7.93907121e-02
      4.87306081e-02 -3.02441660e-02 -1.45181436e-02 3.25500742e-02
      -2.34734155e-02 3.64453979e-02 2.88582016e-02 2.54395716e-02
      1.35165444e-02 3.66870239e-02 -9.86091942e-02 8.21697246e-03
      1.92369502e-02 6.70847297e-02 -1.18600708e-02 6.93371594e-02
      -2.66044438e-02 -9.80037451e-03 3.06948591e-02 -2.62806229e-02
      -2.76009478e-02 6.76698834e-02 -2.82551609e-02 -7.77034089e-02
      2.19065472e-02 3.32992189e-02 2.38746628e-02 -3.83674130e-02
      1.25860972e-02 5.34868427e-02 -1.21166008e-02 -7.60921696e-03
      -3.08489287e-03 2.25048196e-02 -5.15256897e-02 -4.25690506e-03
      7.00173229e-02 -1.27631687e-02 -9.07116849e-03 -6.32370710e-02
      1.36614777e-02 4.42124046e-02 6.40463200e-04 4.45361845e-02
      -6.63072169e-02 -1.08331852e-02 2.31527258e-02 2.44848449e-02
      -3.66597660e-02 6.53796345e-02 -1.79476645e-02 -7.16181844e-02
      8.79126228e-03 -2.67437138e-02 -2.29350515e-02 -5.56231216e-02
      -3.68801840e-02 -2.99445470e-03 4.38454263e-02 -1.62095632e-02
      -5.25331125e-02 5.09770401e-02 -3.57533619e-02 2.49165036e-02
      2.55304910e-02 -3.75436363e-03 -1.20645259e-02 3.48934866e-02
      9.24660079e-03 4.22485061e-02 1.26233175e-02 -9.15865824e-02
      4.14396450e-02 1.15128541e-02 -4.73777540e-02 -1.59357600e-02
      4.53035627e-03 3.99532579e-02 2.31232420e-02 1.85320396e-02
      1.11588269e-01 4.19179052e-02 -1.94346830e-02 -6.20851591e-02
      -4.21478115e-02 -5.29549308e-02 -3.08283907e-03 -4.23214622e-02
      3.76077369e-02 -1.93077642e-02 4.14084233e-02 -3.88753153e-02
      -2.32237317e-02 -6.08304255e-02 4.36999230e-03 -3.82315479e-02
      4.41444516e-02 1.98090030e-03 7.37118907e-03 1.99176576e-02
